<?xml version="1.0"?>
<opencv_storage>
<cascade>
  <stageType>BOOST</stageType>
  <featureType>HAAR</featureType>
  <height>16</height>
  <width>16</width>
  <stageParams>
    <boostType>LB</boostType>
    <minHitRate>9.9500000476837158e-01</minHitRate>
    <maxFalseAlarm>5.0000000000000000e-01</maxFalseAlarm>
    <weightTrimRate>9.4999998807907104e-01</weightTrimRate>
    <maxDepth>1</maxDepth>
    <maxWeakCount>100</maxWeakCount></stageParams>
  <featureParams>
    <maxCatCount>0</maxCatCount>
    <featSize>1</featSize>
    <mode>ALL</mode></featureParams>
  <stageNum>18</stageNum>
  <stages>
    <!-- stage 0 -->
    <_>
      <maxWeakCount>9</maxWeakCount>
      <stageThreshold>-3.4253568649291992e+00</stageThreshold>
      <weakClassifiers>
        <_>
          <internalNodes>
            0 -1 485 -1.4612618088722229e-01</internalNodes>
          <leafValues>
            3.1392776966094971e-01 -1.7820620536804199e+00</leafValues></_>
        <_>
          <internalNodes>
            0 -1 74 -7.4658524990081787e-01</internalNodes>
          <leafValues>
            1.8164286613464355e+00 -6.6584736108779907e-01</leafValues></_>
        <_>
          <internalNodes>
            0 -1 216 -1.3889205455780029e-01</internalNodes>
          <leafValues>
            2.2874214649200439e+00 -7.7037549018859863e-01</leafValues></_>
        <_>
          <internalNodes>
            0 -1 276 5.9973873198032379e-02</internalNodes>
          <leafValues>
            -4.7460377216339111e-01 1.5058387517929077e+00</leafValues></_>
        <_>
          <internalNodes>
            0 -1 273 -1.8411883711814880e-01</internalNodes>
          <leafValues>
            1.2098399400711060e+00 -4.1954296827316284e-01</leafValues></_>
        <_>
          <internalNodes>
            0 -1 55 -3.1392365694046021e-02</internalNodes>
          <leafValues>
            4.5830771327018738e-01 -1.1729041337966919e+00</leafValues></_>
        <_>
          <internalNodes>
            0 -1 74 -5.3100848197937012e-01</internalNodes>
          <leafValues>
            1.1204590797424316e+00 -4.2384037375450134e-01</leafValues></_>
        <_>
          <internalNodes>
            0 -1 68 1.8361515831202269e-03</internalNodes>
          <leafValues>
            3.6331972479820251e-01 -1.2458827495574951e+00</leafValues></_>
        <_>
          <internalNodes>
            0 -1 42 -7.0794834755361080e-04</internalNodes>
          <leafValues>
            -1.2192301750183105e+00 2.8928777575492859e-01</leafValues></_></weakClassifiers></_>
    <!-- stage 1 -->
    <_>
      <maxWeakCount>9</maxWeakCount>
      <stageThreshold>-3.2596614360809326e+00</stageThreshold>
      <weakClassifiers>
        <_>
          <internalNodes>
            0 -1 354 -8.9304491877555847e-02</internalNodes>
          <leafValues>
            1.8034682273864746e+00 -1.0544464588165283e+00</leafValues></_>
        <_>
          <internalNodes>
            0 -1 324 -6.5206468105316162e-02</internalNodes>
          <leafValues>
            3.0759594440460205e+00 -7.0112931728363037e-01</leafValues></_>
        <_>
          <internalNodes>
            0 -1 79 -4.9890175461769104e-01</internalNodes>
          <leafValues>
            1.7262303829193115e+00 -5.9524202346801758e-01</leafValues></_>
        <_>
          <internalNodes>
            0 -1 275 2.3630380630493164e-02</internalNodes>
          <leafValues>
            -3.5800695419311523e-01 1.4647697210311890e+00</leafValues></_>
        <_>
          <internalNodes>
            0 -1 6 3.2876492477953434e-03</internalNodes>
          <leafValues>
            3.9619487524032593e-01 -1.1995944976806641e+00</leafValues></_>
        <_>
          <internalNodes>
            0 -1 7 -3.0981427989900112e-03</internalNodes>
          <leafValues>
            -1.2698620557785034e+00 4.4887822866439819e-01</leafValues></_>
        <_>
          <internalNodes>
            0 -1 173 -1.3443036377429962e-01</internalNodes>
          <leafValues>
            1.1141784191131592e+00 -5.1502829790115356e-01</leafValues></_>
        <_>
          <internalNodes>
            0 -1 456 2.8775846585631371e-03</internalNodes>
          <leafValues>
            3.5364103317260742e-01 -1.1188404560089111e+00</leafValues></_>
        <_>
          <internalNodes>
            0 -1 456 -3.6738794296979904e-03</internalNodes>
          <leafValues>
            -1.1615928411483765e+00 3.6126676201820374e-01</leafValues></_></weakClassifiers></_>
    <!-- stage 2 -->
    <_>
      <maxWeakCount>8</maxWeakCount>
      <stageThreshold>-2.6598331928253174e+00</stageThreshold>
      <weakClassifiers>
        <_>
          <internalNodes>
            0 -1 257 -1.2170366197824478e-01</internalNodes>
          <leafValues>
            1.9209039211273193e+00 -1.0837887525558472e+00</leafValues></_>
        <_>
          <internalNodes>
            0 -1 319 -1.0164268314838409e-01</internalNodes>
          <leafValues>
            3.3798713684082031e+00 -7.7739691734313965e-01</leafValues></_>
        <_>
          <internalNodes>
            0 -1 119 -3.3834880590438843e-01</internalNodes>
          <leafValues>
            1.7283314466476440e+00 -6.3749635219573975e-01</leafValues></_>
        <_>
          <internalNodes>
            0 -1 387 -3.3462237566709518e-02</internalNodes>
          <leafValues>
            1.3330475091934204e+00 -4.6035128831863403e-01</leafValues></_>
        <_>
          <internalNodes>
            0 -1 21 2.7513201348483562e-03</internalNodes>
          <leafValues>
            4.3928465247154236e-01 -1.1718926429748535e+00</leafValues></_>
        <_>
          <internalNodes>
            0 -1 263 1.3144856691360474e-01</internalNodes>
          <leafValues>
            -3.4711793065071106e-01 1.4536945819854736e+00</leafValues></_>
        <_>
          <internalNodes>
            0 -1 268 -7.0452131330966949e-02</internalNodes>
          <leafValues>
            1.9426050186157227e+00 -2.3289571702480316e-01</leafValues></_>
        <_>
          <internalNodes>
            0 -1 515 -8.3256821380928159e-04</internalNodes>
          <leafValues>
            -1.1706364154815674e+00 4.3992900848388672e-01</leafValues></_></weakClassifiers></_>
    <!-- stage 3 -->
    <_>
      <maxWeakCount>11</maxWeakCount>
      <stageThreshold>-3.7210695743560791e+00</stageThreshold>
      <weakClassifiers>
        <_>
          <internalNodes>
            0 -1 203 -3.7478935718536377e-01</internalNodes>
          <leafValues>
            1.7818181514739990e+00 -1.1020785570144653e+00</leafValues></_>
        <_>
          <internalNodes>
            0 -1 272 -2.1772637963294983e-01</internalNodes>
          <leafValues>
            3.1938021183013916e+00 -6.5742236375808716e-01</leafValues></_>
        <_>
          <internalNodes>
            0 -1 171 -9.3232020735740662e-02</internalNodes>
          <leafValues>
            1.4920756816864014e+00 -6.9094395637512207e-01</leafValues></_>
        <_>
          <internalNodes>
            0 -1 122 -4.4102847576141357e-02</internalNodes>
          <leafValues>
            1.3327389955520630e+00 -4.8613104224205017e-01</leafValues></_>
        <_>
          <internalNodes>
            0 -1 293 -3.7338301539421082e-02</internalNodes>
          <leafValues>
            1.1672095060348511e+00 -4.8493936657905579e-01</leafValues></_>
        <_>
          <internalNodes>
            0 -1 217 9.1546386480331421e-02</internalNodes>
          <leafValues>
            -3.9745730161666870e-01 1.4016363620758057e+00</leafValues></_>
        <_>
          <internalNodes>
            0 -1 270 -3.1073087453842163e-01</internalNodes>
          <leafValues>
            1.6826635599136353e+00 -3.4359946846961975e-01</leafValues></_>
        <_>
          <internalNodes>
            0 -1 236 -1.4673788100481033e-02</internalNodes>
          <leafValues>
            3.6743676662445068e-01 -1.4266527891159058e+00</leafValues></_>
        <_>
          <internalNodes>
            0 -1 532 -3.3458083868026733e-02</internalNodes>
          <leafValues>
            -1.0673731565475464e+00 5.7354080677032471e-01</leafValues></_>
        <_>
          <internalNodes>
            0 -1 184 4.9954101443290710e-02</internalNodes>
          <leafValues>
            -3.5181194543838501e-01 1.2694522142410278e+00</leafValues></_>
        <_>
          <internalNodes>
            0 -1 199 -1.6742795705795288e-01</internalNodes>
          <leafValues>
            1.1400072574615479e+00 -3.2561922073364258e-01</leafValues></_></weakClassifiers></_>
    <!-- stage 4 -->
    <_>
      <maxWeakCount>10</maxWeakCount>
      <stageThreshold>-3.2795839309692383e+00</stageThreshold>
      <weakClassifiers>
        <_>
          <internalNodes>
            0 -1 257 -1.6471257805824280e-01</internalNodes>
          <leafValues>
            1.7278106212615967e+00 -1.0325497388839722e+00</leafValues></_>
        <_>
          <internalNodes>
            0 -1 164 1.5214194357395172e-01</internalNodes>
          <leafValues>
            -6.1381012201309204e-01 2.7261698246002197e+00</leafValues></_>
        <_>
          <internalNodes>
            0 -1 79 -5.9364789724349976e-01</internalNodes>
          <leafValues>
            1.6827095746994019e+00 -4.8739930987358093e-01</leafValues></_>
        <_>
          <internalNodes>
            0 -1 90 -7.7286982536315918e-01</internalNodes>
          <leafValues>
            1.9662758111953735e+00 -3.9383357763290405e-01</leafValues></_>
        <_>
          <internalNodes>
            0 -1 500 8.7128701852634549e-04</internalNodes>
          <leafValues>
            3.3373206853866577e-01 -1.4599391222000122e+00</leafValues></_>
        <_>
          <internalNodes>
            0 -1 265 9.8627984523773193e-02</internalNodes>
          <leafValues>
            -1.0331825911998749e-01 4.2421183586120605e+00</leafValues></_>
        <_>
          <internalNodes>
            0 -1 3 -1.5948512591421604e-03</internalNodes>
          <leafValues>
            -1.3059101104736328e+00 2.7643683552742004e-01</leafValues></_>
        <_>
          <internalNodes>
            0 -1 5 1.7316327430307865e-03</internalNodes>
          <leafValues>
            3.1637918949127197e-01 -1.2221069335937500e+00</leafValues></_>
        <_>
          <internalNodes>
            0 -1 504 -3.5745557397603989e-03</internalNodes>
          <leafValues>
            -1.1564910411834717e+00 2.5313287973403931e-01</leafValues></_>
        <_>
          <internalNodes>
            0 -1 206 -8.5712745785713196e-02</internalNodes>
          <leafValues>
            9.0765506029129028e-01 -4.1873005032539368e-01</leafValues></_></weakClassifiers></_>
    <!-- stage 5 -->
    <_>
      <maxWeakCount>12</maxWeakCount>
      <stageThreshold>-2.9211933612823486e+00</stageThreshold>
      <weakClassifiers>
        <_>
          <internalNodes>
            0 -1 115 -7.9656720161437988e-01</internalNodes>
          <leafValues>
            1.7385621070861816e+00 -9.9465239048004150e-01</leafValues></_>
        <_>
          <internalNodes>
            0 -1 240 -5.8441590517759323e-02</internalNodes>
          <leafValues>
            2.3520896434783936e+00 -5.9723061323165894e-01</leafValues></_>
        <_>
          <internalNodes>
            0 -1 288 -1.3347190618515015e-01</internalNodes>
          <leafValues>
            -1.5240449905395508e+00 2.8611525893211365e-01</leafValues></_>
        <_>
          <internalNodes>
            0 -1 369 1.0818409919738770e-01</internalNodes>
          <leafValues>
            -4.6678140759468079e-01 1.5597778558731079e+00</leafValues></_>
        <_>
          <internalNodes>
            0 -1 336 1.3549705967307091e-02</internalNodes>
          <leafValues>
            -4.0556630492210388e-01 1.3740421533584595e+00</leafValues></_>
        <_>
          <internalNodes>
            0 -1 406 1.9135229289531708e-02</internalNodes>
          <leafValues>
            -4.2975169420242310e-01 1.2142620086669922e+00</leafValues></_>
        <_>
          <internalNodes>
            0 -1 167 -6.7174851894378662e-02</internalNodes>
          <leafValues>
            9.7888642549514771e-01 -4.6279707551002502e-01</leafValues></_>
        <_>
          <internalNodes>
            0 -1 108 1.2595925331115723e+00</internalNodes>
          <leafValues>
            -1.9112642109394073e-01 2.1470179557800293e+00</leafValues></_>
        <_>
          <internalNodes>
            0 -1 350 -1.4492310583591461e-02</internalNodes>
          <leafValues>
            1.1050214767456055e+00 -3.5223877429962158e-01</leafValues></_>
        <_>
          <internalNodes>
            0 -1 503 -1.5565105713903904e-03</internalNodes>
          <leafValues>
            -1.1333333253860474e+00 3.1870365142822266e-01</leafValues></_>
        <_>
          <internalNodes>
            0 -1 346 -5.5276775360107422e-01</internalNodes>
          <leafValues>
            1.9835452735424042e-01 -1.3850624561309814e+00</leafValues></_>
        <_>
          <internalNodes>
            0 -1 66 -4.7176949679851532e-02</internalNodes>
          <leafValues>
            -1.3820669651031494e+00 1.7577798664569855e-01</leafValues></_></weakClassifiers></_>
    <!-- stage 6 -->
    <_>
      <maxWeakCount>22</maxWeakCount>
      <stageThreshold>-4.3353428840637207e+00</stageThreshold>
      <weakClassifiers>
        <_>
          <internalNodes>
            0 -1 74 -1.0102307796478271e+00</internalNodes>
          <leafValues>
            1.7411003112792969e+00 -9.9866133928298950e-01</leafValues></_>
        <_>
          <internalNodes>
            0 -1 397 3.9904922246932983e-02</internalNodes>
          <leafValues>
            -6.1313128471374512e-01 1.9133688211441040e+00</leafValues></_>
        <_>
          <internalNodes>
            0 -1 354 -9.2791616916656494e-02</internalNodes>
          <leafValues>
            1.4660838842391968e+00 -4.7554486989974976e-01</leafValues></_>
        <_>
          <internalNodes>
            0 -1 84 -5.8234214782714844e-02</internalNodes>
          <leafValues>
            1.2443000078201294e+00 -4.3696013092994690e-01</leafValues></_>
        <_>
          <internalNodes>
            0 -1 526 -9.7796078771352768e-03</internalNodes>
          <leafValues>
            -1.4098949432373047e+00 2.3331682384014130e-01</leafValues></_>
        <_>
          <internalNodes>
            0 -1 37 -4.0634594857692719e-02</internalNodes>
          <leafValues>
            8.5364007949829102e-01 -4.7468209266662598e-01</leafValues></_>
        <_>
          <internalNodes>
            0 -1 303 -9.7361262887716293e-03</internalNodes>
          <leafValues>
            9.6196109056472778e-01 -5.1740211248397827e-01</leafValues></_>
        <_>
          <internalNodes>
            0 -1 527 -2.3381400853395462e-02</internalNodes>
          <leafValues>
            -1.0818099975585938e+00 3.3839753270149231e-01</leafValues></_>
        <_>
          <internalNodes>
            0 -1 10 9.1046113520860672e-03</internalNodes>
          <leafValues>
            2.5745907425880432e-01 -1.0956301689147949e+00</leafValues></_>
        <_>
          <internalNodes>
            0 -1 14 -1.4322351664304733e-02</internalNodes>
          <leafValues>
            -1.2371224164962769e+00 2.1232752501964569e-01</leafValues></_>
        <_>
          <internalNodes>
            0 -1 15 1.8361574038863182e-02</internalNodes>
          <leafValues>
            2.2184604406356812e-01 -1.1507174968719482e+00</leafValues></_>
        <_>
          <internalNodes>
            0 -1 118 -1.0674595832824707e-02</internalNodes>
          <leafValues>
            -1.0308660268783569e+00 2.1901535987854004e-01</leafValues></_>
        <_>
          <internalNodes>
            0 -1 228 -1.6746571287512779e-02</internalNodes>
          <leafValues>
            7.2444444894790649e-01 -4.0586638450622559e-01</leafValues></_>
        <_>
          <internalNodes>
            0 -1 116 4.9912601709365845e-02</internalNodes>
          <leafValues>
            2.0742444694042206e-01 -1.4113885164260864e+00</leafValues></_>
        <_>
          <internalNodes>
            0 -1 162 4.5672051608562469e-02</internalNodes>
          <leafValues>
            -3.0549061298370361e-01 9.1501355171203613e-01</leafValues></_>
        <_>
          <internalNodes>
            0 -1 285 -1.6800798475742340e-02</internalNodes>
          <leafValues>
            1.0913094282150269e+00 -2.6758542656898499e-01</leafValues></_>
        <_>
          <internalNodes>
            0 -1 490 -7.2589397430419922e-02</internalNodes>
          <leafValues>
            -1.1705266237258911e+00 2.3092244565486908e-01</leafValues></_>
        <_>
          <internalNodes>
            0 -1 529 -2.7356591075658798e-02</internalNodes>
          <leafValues>
            1.2220796197652817e-01 -1.4419614076614380e+00</leafValues></_>
        <_>
          <internalNodes>
            0 -1 172 -2.5013886392116547e-02</internalNodes>
          <leafValues>
            7.6807445287704468e-01 -3.4674605727195740e-01</leafValues></_>
        <_>
          <internalNodes>
            0 -1 345 -4.7309562563896179e-02</internalNodes>
          <leafValues>
            1.4868431091308594e+00 -2.0357450842857361e-01</leafValues></_>
        <_>
          <internalNodes>
            0 -1 20 -2.4466100148856640e-03</internalNodes>
          <leafValues>
            -1.2745786905288696e+00 2.2442764043807983e-01</leafValues></_>
        <_>
          <internalNodes>
            0 -1 362 -1.1210931837558746e-01</internalNodes>
          <leafValues>
            2.7684276103973389e+00 -1.3647724688053131e-01</leafValues></_></weakClassifiers></_>
    <!-- stage 7 -->
    <_>
      <maxWeakCount>27</maxWeakCount>
      <stageThreshold>-4.2161440849304199e+00</stageThreshold>
      <weakClassifiers>
        <_>
          <internalNodes>
            0 -1 74 -1.0559973716735840e+00</internalNodes>
          <leafValues>
            1.5960911512374878e+00 -9.7637093067169189e-01</leafValues></_>
        <_>
          <internalNodes>
            0 -1 273 -2.0924633741378784e-01</internalNodes>
          <leafValues>
            2.0042657852172852e+00 -6.5094941854476929e-01</leafValues></_>
        <_>
          <internalNodes>
            0 -1 329 3.2970130443572998e-02</internalNodes>
          <leafValues>
            -4.9193558096885681e-01 1.4582488536834717e+00</leafValues></_>
        <_>
          <internalNodes>
            0 -1 328 -4.3862320482730865e-02</internalNodes>
          <leafValues>
            7.9653632640838623e-01 -5.0247371196746826e-01</leafValues></_>
        <_>
          <internalNodes>
            0 -1 112 -9.1510415077209473e-02</internalNodes>
          <leafValues>
            1.2629002332687378e+00 -3.6303514242172241e-01</leafValues></_>
        <_>
          <internalNodes>
            0 -1 10 -1.0737784206867218e-02</internalNodes>
          <leafValues>
            -1.1064413785934448e+00 3.0868983268737793e-01</leafValues></_>
        <_>
          <internalNodes>
            0 -1 366 7.6306954026222229e-02</internalNodes>
          <leafValues>
            -2.7482092380523682e-01 1.5568532943725586e+00</leafValues></_>
        <_>
          <internalNodes>
            0 -1 238 -8.3017304539680481e-02</internalNodes>
          <leafValues>
            1.1145786046981812e+00 -2.5634142756462097e-01</leafValues></_>
        <_>
          <internalNodes>
            0 -1 440 1.2677361071109772e-01</internalNodes>
          <leafValues>
            -1.9005541503429413e-01 1.8626686334609985e+00</leafValues></_>
        <_>
          <internalNodes>
            0 -1 160 -1.9166147708892822e-01</internalNodes>
          <leafValues>
            9.0788167715072632e-01 -2.9439756274223328e-01</leafValues></_>
        <_>
          <internalNodes>
            0 -1 256 2.1124847233295441e-02</internalNodes>
          <leafValues>
            -4.5931017398834229e-01 7.9877841472625732e-01</leafValues></_>
        <_>
          <internalNodes>
            0 -1 29 -1.7041047103703022e-03</internalNodes>
          <leafValues>
            -1.1719715595245361e+00 2.3013739287853241e-01</leafValues></_>
        <_>
          <internalNodes>
            0 -1 35 3.2771225087344646e-03</internalNodes>
          <leafValues>
            2.0195953547954559e-01 -1.1124702692031860e+00</leafValues></_>
        <_>
          <internalNodes>
            0 -1 83 4.5237068086862564e-02</internalNodes>
          <leafValues>
            -2.8952366113662720e-01 1.1047724485397339e+00</leafValues></_>
        <_>
          <internalNodes>
            0 -1 394 3.3269975334405899e-02</internalNodes>
          <leafValues>
            -2.6501640677452087e-01 1.0006422996520996e+00</leafValues></_>
        <_>
          <internalNodes>
            0 -1 520 5.7739304611459374e-04</internalNodes>
          <leafValues>
            2.7087008953094482e-01 -9.1575032472610474e-01</leafValues></_>
        <_>
          <internalNodes>
            0 -1 25 5.2482830360531807e-03</internalNodes>
          <leafValues>
            2.0894077420234680e-01 -9.0875893831253052e-01</leafValues></_>
        <_>
          <internalNodes>
            0 -1 417 3.3633999526500702e-02</internalNodes>
          <leafValues>
            -2.2688314318656921e-01 1.2081943750381470e+00</leafValues></_>
        <_>
          <internalNodes>
            0 -1 353 -4.4975429773330688e-03</internalNodes>
          <leafValues>
            6.7302960157394409e-01 -3.5967919230461121e-01</leafValues></_>
        <_>
          <internalNodes>
            0 -1 104 -1.8075495958328247e-02</internalNodes>
          <leafValues>
            7.8859484195709229e-01 -2.8571841120719910e-01</leafValues></_>
        <_>
          <internalNodes>
            0 -1 441 -7.3281332850456238e-02</internalNodes>
          <leafValues>
            1.5447052717208862e+00 -1.5330947935581207e-01</leafValues></_>
        <_>
          <internalNodes>
            0 -1 502 1.2726815184578300e-03</internalNodes>
          <leafValues>
            2.2252297401428223e-01 -1.1130506992340088e+00</leafValues></_>
        <_>
          <internalNodes>
            0 -1 16 6.1878092586994171e-02</internalNodes>
          <leafValues>
            1.2728764116764069e-01 -1.2349652051925659e+00</leafValues></_>
        <_>
          <internalNodes>
            0 -1 287 1.8437020480632782e-02</internalNodes>
          <leafValues>
            -3.2220485806465149e-01 6.4365005493164063e-01</leafValues></_>
        <_>
          <internalNodes>
            0 -1 243 5.2818357944488525e-02</internalNodes>
          <leafValues>
            -2.8011512756347656e-01 6.9189924001693726e-01</leafValues></_>
        <_>
          <internalNodes>
            0 -1 277 2.8733447194099426e-02</internalNodes>
          <leafValues>
            -2.5393301248550415e-01 8.2221126556396484e-01</leafValues></_>
        <_>
          <internalNodes>
            0 -1 415 -2.5009736418724060e-03</internalNodes>
          <leafValues>
            -8.3976531028747559e-01 2.3723439872264862e-01</leafValues></_></weakClassifiers></_>
    <!-- stage 8 -->
    <_>
      <maxWeakCount>19</maxWeakCount>
      <stageThreshold>-3.6033732891082764e+00</stageThreshold>
      <weakClassifiers>
        <_>
          <internalNodes>
            0 -1 74 -1.1059033870697021e+00</internalNodes>
          <leafValues>
            1.5904437303543091e+00 -9.5968097448348999e-01</leafValues></_>
        <_>
          <internalNodes>
            0 -1 41 -9.6452832221984863e-02</internalNodes>
          <leafValues>
            1.9730321168899536e+00 -5.4569029808044434e-01</leafValues></_>
        <_>
          <internalNodes>
            0 -1 343 -5.1995515823364258e-02</internalNodes>
          <leafValues>
            1.2764422893524170e+00 -4.7602778673171997e-01</leafValues></_>
        <_>
          <internalNodes>
            0 -1 367 -1.4270401000976563e-01</internalNodes>
          <leafValues>
            3.2279558181762695e+00 -1.8478986620903015e-01</leafValues></_>
        <_>
          <internalNodes>
            0 -1 85 1.9892957061529160e-02</internalNodes>
          <leafValues>
            -4.6343857049942017e-01 8.7584787607192993e-01</leafValues></_>
        <_>
          <internalNodes>
            0 -1 36 -1.3609674572944641e-01</internalNodes>
          <leafValues>
            1.3626885414123535e-01 -1.7950540781021118e+00</leafValues></_>
        <_>
          <internalNodes>
            0 -1 461 -1.0000598430633545e-01</internalNodes>
          <leafValues>
            1.9194681644439697e+00 -1.9504411518573761e-01</leafValues></_>
        <_>
          <internalNodes>
            0 -1 47 -3.1079691648483276e-01</internalNodes>
          <leafValues>
            1.3437584638595581e+00 -2.3409664630889893e-01</leafValues></_>
        <_>
          <internalNodes>
            0 -1 314 1.7153269052505493e-01</internalNodes>
          <leafValues>
            -2.3561345040798187e-01 1.4464372396469116e+00</leafValues></_>
        <_>
          <internalNodes>
            0 -1 385 3.2858690246939659e-03</internalNodes>
          <leafValues>
            3.7197953462600708e-01 -8.9626652002334595e-01</leafValues></_>
        <_>
          <internalNodes>
            0 -1 80 -2.3532905615866184e-03</internalNodes>
          <leafValues>
            -1.2411949634552002e+00 1.9772575795650482e-01</leafValues></_>
        <_>
          <internalNodes>
            0 -1 91 6.1183705925941467e-02</internalNodes>
          <leafValues>
            -3.4922447800636292e-01 9.7115725278854370e-01</leafValues></_>
        <_>
          <internalNodes>
            0 -1 355 -3.1517397612333298e-02</internalNodes>
          <leafValues>
            1.0831763744354248e+00 -3.7043282389640808e-01</leafValues></_>
        <_>
          <internalNodes>
            0 -1 0 -4.4317308813333511e-02</internalNodes>
          <leafValues>
            -1.8726404905319214e+00 1.7060029506683350e-01</leafValues></_>
        <_>
          <internalNodes>
            0 -1 215 -1.5519270673394203e-02</internalNodes>
          <leafValues>
            6.3806790113449097e-01 -4.1407084465026855e-01</leafValues></_>
        <_>
          <internalNodes>
            0 -1 109 -7.2404006496071815e-03</internalNodes>
          <leafValues>
            -9.6025896072387695e-01 2.7515512704849243e-01</leafValues></_>
        <_>
          <internalNodes>
            0 -1 251 7.8492200374603271e-01</internalNodes>
          <leafValues>
            -2.2057770192623138e-01 1.5785688161849976e+00</leafValues></_>
        <_>
          <internalNodes>
            0 -1 403 -5.4327212274074554e-03</internalNodes>
          <leafValues>
            -1.3142100572586060e+00 2.0793421566486359e-01</leafValues></_>
        <_>
          <internalNodes>
            0 -1 220 -1.0559771209955215e-01</internalNodes>
          <leafValues>
            7.3570126295089722e-01 -3.5416087508201599e-01</leafValues></_></weakClassifiers></_>
    <!-- stage 9 -->
    <_>
      <maxWeakCount>23</maxWeakCount>
      <stageThreshold>-3.5789129734039307e+00</stageThreshold>
      <weakClassifiers>
        <_>
          <internalNodes>
            0 -1 296 1.6521893441677094e-01</internalNodes>
          <leafValues>
            -9.5675921440124512e-01 1.1388101577758789e+00</leafValues></_>
        <_>
          <internalNodes>
            0 -1 363 2.0107430219650269e-01</internalNodes>
          <leafValues>
            -3.0685165524482727e-01 3.0520093441009521e+00</leafValues></_>
        <_>
          <internalNodes>
            0 -1 421 8.6148828268051147e-02</internalNodes>
          <leafValues>
            -1.5419925749301910e-01 4.3053417205810547e+00</leafValues></_>
        <_>
          <internalNodes>
            0 -1 464 2.2550743818283081e-01</internalNodes>
          <leafValues>
            -1.8565848469734192e-01 2.6608967781066895e+00</leafValues></_>
        <_>
          <internalNodes>
            0 -1 312 -1.6683344542980194e-01</internalNodes>
          <leafValues>
            1.3296411037445068e+00 -4.3383035063743591e-01</leafValues></_>
        <_>
          <internalNodes>
            0 -1 339 -3.7611246109008789e-02</internalNodes>
          <leafValues>
            1.6796462535858154e+00 -2.3025405406951904e-01</leafValues></_>
        <_>
          <internalNodes>
            0 -1 201 1.8803186714649200e-02</internalNodes>
          <leafValues>
            -3.3049249649047852e-01 1.3085554838180542e+00</leafValues></_>
        <_>
          <internalNodes>
            0 -1 250 -1.3792138546705246e-02</internalNodes>
          <leafValues>
            8.9705312252044678e-01 -4.3678486347198486e-01</leafValues></_>
        <_>
          <internalNodes>
            0 -1 148 -1.2704804539680481e-02</internalNodes>
          <leafValues>
            9.3391561508178711e-01 -3.2620334625244141e-01</leafValues></_>
        <_>
          <internalNodes>
            0 -1 455 -1.9661786500364542e-03</internalNodes>
          <leafValues>
            -1.2336629629135132e+00 2.2881668806076050e-01</leafValues></_>
        <_>
          <internalNodes>
            0 -1 337 -3.0386189464479685e-03</internalNodes>
          <leafValues>
            -1.3455320596694946e+00 1.5856832265853882e-01</leafValues></_>
        <_>
          <internalNodes>
            0 -1 518 4.6661728993058205e-03</internalNodes>
          <leafValues>
            1.9761747121810913e-01 -1.1438822746276855e+00</leafValues></_>
        <_>
          <internalNodes>
            0 -1 432 1.0396988131105900e-02</internalNodes>
          <leafValues>
            -3.3685654401779175e-01 8.0063062906265259e-01</leafValues></_>
        <_>
          <internalNodes>
            0 -1 57 3.2245010137557983e-02</internalNodes>
          <leafValues>
            -2.5740587711334229e-01 1.1275037527084351e+00</leafValues></_>
        <_>
          <internalNodes>
            0 -1 530 -2.2493032738566399e-03</internalNodes>
          <leafValues>
            -1.0714526176452637e+00 2.8216022253036499e-01</leafValues></_>
        <_>
          <internalNodes>
            0 -1 392 1.1357123032212257e-02</internalNodes>
          <leafValues>
            -3.2501477003097534e-01 8.0308115482330322e-01</leafValues></_>
        <_>
          <internalNodes>
            0 -1 158 -9.8895184695720673e-02</internalNodes>
          <leafValues>
            8.8877195119857788e-01 -3.0812591314315796e-01</leafValues></_>
        <_>
          <internalNodes>
            0 -1 438 -1.6833922266960144e-01</internalNodes>
          <leafValues>
            1.4248490333557129e+00 -1.8780913949012756e-01</leafValues></_>
        <_>
          <internalNodes>
            0 -1 13 -2.3341460227966309e+00</internalNodes>
          <leafValues>
            -1.0009413957595825e+00 2.7144289016723633e-01</leafValues></_>
        <_>
          <internalNodes>
            0 -1 190 9.5984667539596558e-02</internalNodes>
          <leafValues>
            -2.1217244863510132e-01 1.0857428312301636e+00</leafValues></_>
        <_>
          <internalNodes>
            0 -1 387 -5.0532877445220947e-02</internalNodes>
          <leafValues>
            1.0137844085693359e+00 -2.6906460523605347e-01</leafValues></_>
        <_>
          <internalNodes>
            0 -1 416 -3.5559549927711487e-02</internalNodes>
          <leafValues>
            9.6037805080413818e-01 -2.3426476120948792e-01</leafValues></_>
        <_>
          <internalNodes>
            0 -1 468 6.1287442222237587e-03</internalNodes>
          <leafValues>
            -3.6986556649208069e-01 6.6170400381088257e-01</leafValues></_></weakClassifiers></_>
    <!-- stage 10 -->
    <_>
      <maxWeakCount>24</maxWeakCount>
      <stageThreshold>-2.8064489364624023e+00</stageThreshold>
      <weakClassifiers>
        <_>
          <internalNodes>
            0 -1 310 -1.5181170403957367e-01</internalNodes>
          <leafValues>
            1.1471471786499023e+00 -9.3910688161849976e-01</leafValues></_>
        <_>
          <internalNodes>
            0 -1 281 -1.0137723386287689e-01</internalNodes>
          <leafValues>
            1.5602910518646240e+00 -5.6254118680953979e-01</leafValues></_>
        <_>
          <internalNodes>
            0 -1 168 -5.4718649387359619e-01</internalNodes>
          <leafValues>
            1.3050711154937744e+00 -3.8264739513397217e-01</leafValues></_>
        <_>
          <internalNodes>
            0 -1 73 3.3274017274379730e-02</internalNodes>
          <leafValues>
            -3.5939422249794006e-01 1.1195979118347168e+00</leafValues></_>
        <_>
          <internalNodes>
            0 -1 124 3.2772484701126814e-03</internalNodes>
          <leafValues>
            2.1452140808105469e-01 -1.4706809520721436e+00</leafValues></_>
        <_>
          <internalNodes>
            0 -1 491 -6.6591896116733551e-02</internalNodes>
          <leafValues>
            1.8055170774459839e-01 -1.4085214138031006e+00</leafValues></_>
        <_>
          <internalNodes>
            0 -1 507 -6.9394246675074100e-03</internalNodes>
          <leafValues>
            -1.2531830072402954e+00 1.9185632467269897e-01</leafValues></_>
        <_>
          <internalNodes>
            0 -1 191 -2.4714832007884979e-01</internalNodes>
          <leafValues>
            1.0285708904266357e+00 -3.5939908027648926e-01</leafValues></_>
        <_>
          <internalNodes>
            0 -1 152 -1.3486742973327637e-01</internalNodes>
          <leafValues>
            -1.1009589433670044e+00 3.1780201196670532e-01</leafValues></_>
        <_>
          <internalNodes>
            0 -1 51 -1.4066836237907410e-01</internalNodes>
          <leafValues>
            5.4361718893051147e-01 -4.6366590261459351e-01</leafValues></_>
        <_>
          <internalNodes>
            0 -1 443 -9.4782635569572449e-02</internalNodes>
          <leafValues>
            1.3553394079208374e+00 -1.7018817365169525e-01</leafValues></_>
        <_>
          <internalNodes>
            0 -1 71 -9.8548608366400003e-04</internalNodes>
          <leafValues>
            -1.3508288860321045e+00 1.7571465671062469e-01</leafValues></_>
        <_>
          <internalNodes>
            0 -1 332 -1.6282115131616592e-02</internalNodes>
          <leafValues>
            6.4151132106781006e-01 -3.4419900178909302e-01</leafValues></_>
        <_>
          <internalNodes>
            0 -1 284 2.8445725329220295e-03</internalNodes>
          <leafValues>
            1.5437404811382294e-01 -1.1257582902908325e+00</leafValues></_>
        <_>
          <internalNodes>
            0 -1 72 2.2697704844176769e-03</internalNodes>
          <leafValues>
            1.4340129494667053e-01 -1.2300434112548828e+00</leafValues></_>
        <_>
          <internalNodes>
            0 -1 531 -2.7345128357410431e-02</internalNodes>
          <leafValues>
            -1.3534725904464722e+00 1.2314219027757645e-01</leafValues></_>
        <_>
          <internalNodes>
            0 -1 379 3.6380775272846222e-03</internalNodes>
          <leafValues>
            1.4130710065364838e-01 -1.1295515298843384e+00</leafValues></_>
        <_>
          <internalNodes>
            0 -1 389 -2.8410857915878296e-01</internalNodes>
          <leafValues>
            1.9665216207504272e+00 -1.5683479607105255e-01</leafValues></_>
        <_>
          <internalNodes>
            0 -1 179 -1.2620923807844520e-03</internalNodes>
          <leafValues>
            6.0093075037002563e-01 -3.0360332131385803e-01</leafValues></_>
        <_>
          <internalNodes>
            0 -1 127 1.0278576612472534e-01</internalNodes>
          <leafValues>
            -1.7503648996353149e-01 1.3648234605789185e+00</leafValues></_>
        <_>
          <internalNodes>
            0 -1 376 -8.5684424266219139e-03</internalNodes>
          <leafValues>
            4.6439027786254883e-01 -4.3271112442016602e-01</leafValues></_>
        <_>
          <internalNodes>
            0 -1 101 -7.0448756217956543e-02</internalNodes>
          <leafValues>
            1.0416116565465927e-01 -1.5313106775283813e+00</leafValues></_>
        <_>
          <internalNodes>
            0 -1 481 3.6341524682939053e-03</internalNodes>
          <leafValues>
            1.0365436226129532e-01 -1.3031194210052490e+00</leafValues></_>
        <_>
          <internalNodes>
            0 -1 208 1.5107426792383194e-02</internalNodes>
          <leafValues>
            -3.1663960218429565e-01 5.1405185461044312e-01</leafValues></_></weakClassifiers></_>
    <!-- stage 11 -->
    <_>
      <maxWeakCount>72</maxWeakCount>
      <stageThreshold>-5.6055045127868652e+00</stageThreshold>
      <weakClassifiers>
        <_>
          <internalNodes>
            0 -1 74 -1.2405307292938232e+00</internalNodes>
          <leafValues>
            1.2727272510528564e+00 -9.0109890699386597e-01</leafValues></_>
        <_>
          <internalNodes>
            0 -1 271 -1.9884203374385834e-01</internalNodes>
          <leafValues>
            2.4174845218658447e+00 -2.7839702367782593e-01</leafValues></_>
        <_>
          <internalNodes>
            0 -1 253 2.7159892488270998e-03</internalNodes>
          <leafValues>
            -3.7412720918655396e-01 9.5499229431152344e-01</leafValues></_>
        <_>
          <internalNodes>
            0 -1 267 1.0934485495090485e-01</internalNodes>
          <leafValues>
            -2.2564582526683807e-01 2.7263853549957275e+00</leafValues></_>
        <_>
          <internalNodes>
            0 -1 213 -1.0125890374183655e-02</internalNodes>
          <leafValues>
            8.0582785606384277e-01 -3.9202824234962463e-01</leafValues></_>
        <_>
          <internalNodes>
            0 -1 439 -1.9941540062427521e-01</internalNodes>
          <leafValues>
            2.4517197608947754e+00 -1.8223294615745544e-01</leafValues></_>
        <_>
          <internalNodes>
            0 -1 482 4.1156870429404080e-04</internalNodes>
          <leafValues>
            2.5201231241226196e-01 -1.0980433225631714e+00</leafValues></_>
        <_>
          <internalNodes>
            0 -1 300 -8.2349684089422226e-03</internalNodes>
          <leafValues>
            8.1428927183151245e-01 -3.7082383036613464e-01</leafValues></_>
        <_>
          <internalNodes>
            0 -1 360 -2.5415819883346558e-01</internalNodes>
          <leafValues>
            1.9202861785888672e+00 -1.6358467936515808e-01</leafValues></_>
        <_>
          <internalNodes>
            0 -1 444 1.8572064116597176e-02</internalNodes>
          <leafValues>
            -3.2427519559860229e-01 8.8160532712936401e-01</leafValues></_>
        <_>
          <internalNodes>
            0 -1 200 -2.5409734249114990e-01</internalNodes>
          <leafValues>
            9.8123359680175781e-01 -2.7564537525177002e-01</leafValues></_>
        <_>
          <internalNodes>
            0 -1 70 1.4308820962905884e+00</internalNodes>
          <leafValues>
            -1.7554980516433716e-01 1.9114462137222290e+00</leafValues></_>
        <_>
          <internalNodes>
            0 -1 61 2.6092061772942543e-02</internalNodes>
          <leafValues>
            -4.2748263478279114e-01 6.6890352964401245e-01</leafValues></_>
        <_>
          <internalNodes>
            0 -1 516 -2.0902997348457575e-03</internalNodes>
          <leafValues>
            -1.2000920772552490e+00 1.4908550679683685e-01</leafValues></_>
        <_>
          <internalNodes>
            0 -1 34 9.3910808209329844e-04</internalNodes>
          <leafValues>
            1.3563741743564606e-01 -1.3293101787567139e+00</leafValues></_>
        <_>
          <internalNodes>
            0 -1 225 2.3454671725630760e-02</internalNodes>
          <leafValues>
            -2.1518391370773315e-01 1.0588358640670776e+00</leafValues></_>
        <_>
          <internalNodes>
            0 -1 477 1.3286262401379645e-04</internalNodes>
          <leafValues>
            -5.2808856964111328e-01 4.1857579350471497e-01</leafValues></_>
        <_>
          <internalNodes>
            0 -1 161 2.4084094911813736e-02</internalNodes>
          <leafValues>
            -1.7398752272129059e-01 1.1908358335494995e+00</leafValues></_>
        <_>
          <internalNodes>
            0 -1 342 5.9014097787439823e-03</internalNodes>
          <leafValues>
            -3.2876381278038025e-01 6.1748957633972168e-01</leafValues></_>
        <_>
          <internalNodes>
            0 -1 463 -9.9857069551944733e-02</internalNodes>
          <leafValues>
            1.2996295690536499e+00 -1.6473224759101868e-01</leafValues></_>
        <_>
          <internalNodes>
            0 -1 458 6.0105207376182079e-04</internalNodes>
          <leafValues>
            2.0144104957580566e-01 -1.0283666849136353e+00</leafValues></_>
        <_>
          <internalNodes>
            0 -1 380 -3.4261527471244335e-03</internalNodes>
          <leafValues>
            -1.3358151912689209e+00 9.4326093792915344e-02</leafValues></_>
        <_>
          <internalNodes>
            0 -1 94 -1.2408294677734375e+00</internalNodes>
          <leafValues>
            -1.6288611888885498e+00 6.2492951750755310e-02</leafValues></_>
        <_>
          <internalNodes>
            0 -1 239 -7.7163636684417725e-02</internalNodes>
          <leafValues>
            1.1461299657821655e-01 -1.1824163198471069e+00</leafValues></_>
        <_>
          <internalNodes>
            0 -1 517 1.3795990962535143e-03</internalNodes>
          <leafValues>
            7.7589914202690125e-02 -1.3767591714859009e+00</leafValues></_>
        <_>
          <internalNodes>
            0 -1 478 -3.8089972804300487e-04</internalNodes>
          <leafValues>
            4.0833261609077454e-01 -3.5624226927757263e-01</leafValues></_>
        <_>
          <internalNodes>
            0 -1 64 2.4438705295324326e-02</internalNodes>
          <leafValues>
            -2.5426545739173889e-01 6.6693478822708130e-01</leafValues></_>
        <_>
          <internalNodes>
            0 -1 257 -1.6663604974746704e-01</internalNodes>
          <leafValues>
            8.0147725343704224e-01 -2.0994833111763000e-01</leafValues></_>
        <_>
          <internalNodes>
            0 -1 45 -2.8686646372079849e-02</internalNodes>
          <leafValues>
            6.5445005893707275e-01 -3.5746359825134277e-01</leafValues></_>
        <_>
          <internalNodes>
            0 -1 150 9.8722893744707108e-04</internalNodes>
          <leafValues>
            1.4600183069705963e-01 -1.0657281875610352e+00</leafValues></_>
        <_>
          <internalNodes>
            0 -1 97 2.9049916192889214e-02</internalNodes>
          <leafValues>
            -2.3648774623870850e-01 8.1775045394897461e-01</leafValues></_>
        <_>
          <internalNodes>
            0 -1 356 1.6749718785285950e-01</internalNodes>
          <leafValues>
            -2.8140345215797424e-01 6.4901190996170044e-01</leafValues></_>
        <_>
          <internalNodes>
            0 -1 434 1.7153134569525719e-02</internalNodes>
          <leafValues>
            -2.9142647981643677e-01 6.3130772113800049e-01</leafValues></_>
        <_>
          <internalNodes>
            0 -1 403 -3.9655705913901329e-03</internalNodes>
          <leafValues>
            -1.0276110172271729e+00 1.2958283722400665e-01</leafValues></_>
        <_>
          <internalNodes>
            0 -1 264 -3.4555360674858093e-02</internalNodes>
          <leafValues>
            9.2744815349578857e-01 -1.6926206648349762e-01</leafValues></_>
        <_>
          <internalNodes>
            0 -1 357 -1.8101369496434927e-03</internalNodes>
          <leafValues>
            4.5363962650299072e-01 -2.9443356394767761e-01</leafValues></_>
        <_>
          <internalNodes>
            0 -1 259 7.7336034737527370e-03</internalNodes>
          <leafValues>
            -2.4136538803577423e-01 6.5713906288146973e-01</leafValues></_>
        <_>
          <internalNodes>
            0 -1 67 5.5801984854042530e-04</internalNodes>
          <leafValues>
            1.2557029724121094e-01 -9.6296256780624390e-01</leafValues></_>
        <_>
          <internalNodes>
            0 -1 121 1.2946960050612688e-03</internalNodes>
          <leafValues>
            -3.5235404968261719e-01 3.9423748850822449e-01</leafValues></_>
        <_>
          <internalNodes>
            0 -1 294 -1.6816121339797974e-01</internalNodes>
          <leafValues>
            1.1757367849349976e+00 -1.2038434296846390e-01</leafValues></_>
        <_>
          <internalNodes>
            0 -1 414 -3.8336530327796936e-02</internalNodes>
          <leafValues>
            7.2820150852203369e-01 -2.0841005444526672e-01</leafValues></_>
        <_>
          <internalNodes>
            0 -1 403 3.1192856840789318e-03</internalNodes>
          <leafValues>
            1.3588821887969971e-01 -9.3620175123214722e-01</leafValues></_>
        <_>
          <internalNodes>
            0 -1 335 -2.2032125853002071e-03</internalNodes>
          <leafValues>
            6.0782700777053833e-01 -2.2244559228420258e-01</leafValues></_>
        <_>
          <internalNodes>
            0 -1 412 5.2235147450119257e-04</internalNodes>
          <leafValues>
            -3.5633325576782227e-01 4.0000423789024353e-01</leafValues></_>
        <_>
          <internalNodes>
            0 -1 320 -4.4709153473377228e-02</internalNodes>
          <leafValues>
            6.6389328241348267e-01 -1.8488062918186188e-01</leafValues></_>
        <_>
          <internalNodes>
            0 -1 316 1.2341065332293510e-02</internalNodes>
          <leafValues>
            -3.2543459534645081e-01 5.1208853721618652e-01</leafValues></_>
        <_>
          <internalNodes>
            0 -1 39 -3.0383237171918154e-03</internalNodes>
          <leafValues>
            -9.1568535566329956e-01 1.4401787519454956e-01</leafValues></_>
        <_>
          <internalNodes>
            0 -1 92 8.1996046006679535e-02</internalNodes>
          <leafValues>
            -1.4344905316829681e-01 1.1271711587905884e+00</leafValues></_>
        <_>
          <internalNodes>
            0 -1 522 -4.1999807581305504e-03</internalNodes>
          <leafValues>
            9.8345625400543213e-01 -1.2277340888977051e-01</leafValues></_>
        <_>
          <internalNodes>
            0 -1 528 -1.3656070455908775e-02</internalNodes>
          <leafValues>
            -9.7024774551391602e-01 1.3431379199028015e-01</leafValues></_>
        <_>
          <internalNodes>
            0 -1 62 -7.7785506844520569e-02</internalNodes>
          <leafValues>
            2.4095752239227295e+00 -7.3023580014705658e-02</leafValues></_>
        <_>
          <internalNodes>
            0 -1 181 1.1450888123363256e-03</internalNodes>
          <leafValues>
            1.7250654101371765e-01 -6.6054826974868774e-01</leafValues></_>
        <_>
          <internalNodes>
            0 -1 442 2.9362454079091549e-03</internalNodes>
          <leafValues>
            -3.5629239678382874e-01 3.0198121070861816e-01</leafValues></_>
        <_>
          <internalNodes>
            0 -1 327 9.2237880453467369e-03</internalNodes>
          <leafValues>
            -2.2779889404773712e-01 6.0131007432937622e-01</leafValues></_>
        <_>
          <internalNodes>
            0 -1 278 -4.0047811344265938e-03</internalNodes>
          <leafValues>
            -1.2079581022262573e+00 9.3264535069465637e-02</leafValues></_>
        <_>
          <internalNodes>
            0 -1 30 2.2918574512004852e-02</internalNodes>
          <leafValues>
            5.8275390416383743e-02 -1.4530030488967896e+00</leafValues></_>
        <_>
          <internalNodes>
            0 -1 87 1.3091320870444179e-03</internalNodes>
          <leafValues>
            7.7577374875545502e-02 -9.4926863908767700e-01</leafValues></_>
        <_>
          <internalNodes>
            0 -1 425 -1.4301247894763947e-02</internalNodes>
          <leafValues>
            -1.1783316135406494e+00 7.0141054689884186e-02</leafValues></_>
        <_>
          <internalNodes>
            0 -1 33 2.1306504495441914e-03</internalNodes>
          <leafValues>
            -2.5516220927238464e-01 3.4205287694931030e-01</leafValues></_>
        <_>
          <internalNodes>
            0 -1 269 -2.6268359273672104e-02</internalNodes>
          <leafValues>
            5.4864442348480225e-01 -2.1951141953468323e-01</leafValues></_>
        <_>
          <internalNodes>
            0 -1 428 2.5885766372084618e-03</internalNodes>
          <leafValues>
            -2.9545763134956360e-01 3.2765847444534302e-01</leafValues></_>
        <_>
          <internalNodes>
            0 -1 391 -1.3239379972219467e-02</internalNodes>
          <leafValues>
            4.4701242446899414e-01 -2.1906200051307678e-01</leafValues></_>
        <_>
          <internalNodes>
            0 -1 407 3.0816727876663208e-01</internalNodes>
          <leafValues>
            -6.1648176051676273e-03 10.</leafValues></_>
        <_>
          <internalNodes>
            0 -1 422 -5.9009850025177002e-02</internalNodes>
          <leafValues>
            6.7680436372756958e-01 -1.5623916685581207e-01</leafValues></_>
        <_>
          <internalNodes>
            0 -1 2 -5.9874635189771652e-02</internalNodes>
          <leafValues>
            -10. 1.4260341413319111e-02</leafValues></_>
        <_>
          <internalNodes>
            0 -1 334 1.2382520362734795e-03</internalNodes>
          <leafValues>
            1.5063992142677307e-01 -6.0029613971710205e-01</leafValues></_>
        <_>
          <internalNodes>
            0 -1 136 3.5667750053107738e-03</internalNodes>
          <leafValues>
            -2.2088925540447235e-01 4.1847753524780273e-01</leafValues></_>
        <_>
          <internalNodes>
            0 -1 186 1.7519351094961166e-02</internalNodes>
          <leafValues>
            1.0472305119037628e-01 -8.6338663101196289e-01</leafValues></_>
        <_>
          <internalNodes>
            0 -1 289 -1.8487843871116638e-01</internalNodes>
          <leafValues>
            -1.7002232372760773e-01 6.2785142660140991e-01</leafValues></_>
        <_>
          <internalNodes>
            0 -1 176 -5.3442467469722033e-04</internalNodes>
          <leafValues>
            3.9463502168655396e-01 -1.9928553700447083e-01</leafValues></_>
        <_>
          <internalNodes>
            0 -1 361 1.7968697648029774e-04</internalNodes>
          <leafValues>
            -2.4420659244060516e-01 3.5726305842399597e-01</leafValues></_>
        <_>
          <internalNodes>
            0 -1 290 -1.1639212258160114e-02</internalNodes>
          <leafValues>
            4.4973984360694885e-01 -2.0909604430198669e-01</leafValues></_></weakClassifiers></_>
    <!-- stage 12 -->
    <_>
      <maxWeakCount>35</maxWeakCount>
      <stageThreshold>-3.2212979793548584e+00</stageThreshold>
      <weakClassifiers>
        <_>
          <internalNodes>
            0 -1 309 -1.3669729232788086e-01</internalNodes>
          <leafValues>
            9.2490118741989136e-01 -8.4196776151657104e-01</leafValues></_>
        <_>
          <internalNodes>
            0 -1 218 -3.8146868348121643e-02</internalNodes>
          <leafValues>
            1.4619870185852051e+00 -3.7082120776176453e-01</leafValues></_>
        <_>
          <internalNodes>
            0 -1 438 -2.0097185671329498e-01</internalNodes>
          <leafValues>
            2.3767697811126709e+00 -2.0948533713817596e-01</leafValues></_>
        <_>
          <internalNodes>
            0 -1 304 2.8039699420332909e-02</internalNodes>
          <leafValues>
            -3.1966826319694519e-01 9.1713917255401611e-01</leafValues></_>
        <_>
          <internalNodes>
            0 -1 395 1.5675348043441772e-01</internalNodes>
          <leafValues>
            -1.5363441407680511e-01 2.2419714927673340e+00</leafValues></_>
        <_>
          <internalNodes>
            0 -1 306 1.2634018063545227e-01</internalNodes>
          <leafValues>
            -2.5537592172622681e-01 1.1312302350997925e+00</leafValues></_>
        <_>
          <internalNodes>
            0 -1 23 -4.2674219608306885e-01</internalNodes>
          <leafValues>
            -1.7175900936126709e+00 1.3279482722282410e-01</leafValues></_>
        <_>
          <internalNodes>
            0 -1 31 -2.1315007470548153e-03</internalNodes>
          <leafValues>
            -1.1578980684280396e+00 1.8863600492477417e-01</leafValues></_>
        <_>
          <internalNodes>
            0 -1 7 2.4022031575441360e-03</internalNodes>
          <leafValues>
            2.0384953916072845e-01 -1.0291401147842407e+00</leafValues></_>
        <_>
          <internalNodes>
            0 -1 102 1.2216052040457726e-02</internalNodes>
          <leafValues>
            -4.5992416143417358e-01 4.9060857295989990e-01</leafValues></_>
        <_>
          <internalNodes>
            0 -1 58 6.8507052958011627e-02</internalNodes>
          <leafValues>
            -2.2025895118713379e-01 1.2849882841110229e+00</leafValues></_>
        <_>
          <internalNodes>
            0 -1 103 -5.2628971636295319e-02</internalNodes>
          <leafValues>
            7.2962683439254761e-01 -3.2016599178314209e-01</leafValues></_>
        <_>
          <internalNodes>
            0 -1 78 -5.9307134151458740e-01</internalNodes>
          <leafValues>
            1.2104345560073853e+00 -1.8254519999027252e-01</leafValues></_>
        <_>
          <internalNodes>
            0 -1 86 -2.6034700870513916e-01</internalNodes>
          <leafValues>
            8.9143228530883789e-01 -3.2570767402648926e-01</leafValues></_>
        <_>
          <internalNodes>
            0 -1 459 -1.6689944267272949e-01</internalNodes>
          <leafValues>
            1.0833379030227661e+00 -1.9199089705944061e-01</leafValues></_>
        <_>
          <internalNodes>
            0 -1 511 -2.2275927476584911e-03</internalNodes>
          <leafValues>
            -1.0510140657424927e+00 1.8576522171497345e-01</leafValues></_>
        <_>
          <internalNodes>
            0 -1 188 -5.9609942138195038e-02</internalNodes>
          <leafValues>
            6.0953199863433838e-01 -3.4861519932746887e-01</leafValues></_>
        <_>
          <internalNodes>
            0 -1 153 3.1680572032928467e-01</internalNodes>
          <leafValues>
            -1.6455084085464478e-01 1.6151961088180542e+00</leafValues></_>
        <_>
          <internalNodes>
            0 -1 196 -3.4840339422225952e-01</internalNodes>
          <leafValues>
            1.5770102739334106e+00 -1.3211089372634888e-01</leafValues></_>
        <_>
          <internalNodes>
            0 -1 44 -8.0346167087554932e-02</internalNodes>
          <leafValues>
            5.9613269567489624e-01 -3.3903652429580688e-01</leafValues></_>
        <_>
          <internalNodes>
            0 -1 341 -4.3682880699634552e-02</internalNodes>
          <leafValues>
            1.0442159324884415e-01 -1.3331769704818726e+00</leafValues></_>
        <_>
          <internalNodes>
            0 -1 427 -1.1543963104486465e-02</internalNodes>
          <leafValues>
            8.1940716505050659e-01 -2.2563436627388000e-01</leafValues></_>
        <_>
          <internalNodes>
            0 -1 451 5.3259311243891716e-03</internalNodes>
          <leafValues>
            -4.6145147085189819e-01 4.7434183955192566e-01</leafValues></_>
        <_>
          <internalNodes>
            0 -1 431 -4.3515535071492195e-03</internalNodes>
          <leafValues>
            -9.8284077644348145e-01 1.5006697177886963e-01</leafValues></_>
        <_>
          <internalNodes>
            0 -1 96 8.9235939085483551e-03</internalNodes>
          <leafValues>
            -2.3495976626873016e-01 7.5952130556106567e-01</leafValues></_>
        <_>
          <internalNodes>
            0 -1 506 -8.4115436766296625e-04</internalNodes>
          <leafValues>
            -7.3551207780838013e-01 2.0220819115638733e-01</leafValues></_>
        <_>
          <internalNodes>
            0 -1 295 -3.5091489553451538e-02</internalNodes>
          <leafValues>
            6.5288281440734863e-01 -2.5424927473068237e-01</leafValues></_>
        <_>
          <internalNodes>
            0 -1 409 3.6275189369916916e-02</internalNodes>
          <leafValues>
            -3.7337008118629456e-01 5.0265765190124512e-01</leafValues></_>
        <_>
          <internalNodes>
            0 -1 283 7.7458219602704048e-03</internalNodes>
          <leafValues>
            1.0254998505115509e-01 -1.1506714820861816e+00</leafValues></_>
        <_>
          <internalNodes>
            0 -1 450 8.4205595776438713e-03</internalNodes>
          <leafValues>
            -2.3156592249870300e-01 6.0186934471130371e-01</leafValues></_>
        <_>
          <internalNodes>
            0 -1 415 2.2764913737773895e-03</internalNodes>
          <leafValues>
            1.5917691588401794e-01 -7.7256655693054199e-01</leafValues></_>
        <_>
          <internalNodes>
            0 -1 374 4.0645711123943329e-03</internalNodes>
          <leafValues>
            1.0810737311840057e-01 -9.2053914070129395e-01</leafValues></_>
        <_>
          <internalNodes>
            0 -1 28 2.4155013263225555e-02</internalNodes>
          <leafValues>
            -2.9684659838676453e-01 4.2725637555122375e-01</leafValues></_>
        <_>
          <internalNodes>
            0 -1 49 3.2765474170446396e-02</internalNodes>
          <leafValues>
            -3.1019505858421326e-01 5.0116014480590820e-01</leafValues></_>
        <_>
          <internalNodes>
            0 -1 446 1.6690967604517937e-03</internalNodes>
          <leafValues>
            -3.5651910305023193e-01 4.4804096221923828e-01</leafValues></_></weakClassifiers></_>
    <!-- stage 13 -->
    <_>
      <maxWeakCount>43</maxWeakCount>
      <stageThreshold>-3.5204579830169678e+00</stageThreshold>
      <weakClassifiers>
        <_>
          <internalNodes>
            0 -1 257 -2.1916100382804871e-01</internalNodes>
          <leafValues>
            7.3111784458160400e-01 -8.7516897916793823e-01</leafValues></_>
        <_>
          <internalNodes>
            0 -1 267 1.1008341610431671e-01</internalNodes>
          <leafValues>
            -2.2224085032939911e-01 2.6274743080139160e+00</leafValues></_>
        <_>
          <internalNodes>
            0 -1 438 1.9070824980735779e-01</internalNodes>
          <leafValues>
            -1.3212952017784119e-01 2.9303689002990723e+00</leafValues></_>
        <_>
          <internalNodes>
            0 -1 89 -3.8818639516830444e-01</internalNodes>
          <leafValues>
            1.4961758852005005e+00 -1.7062917351722717e-01</leafValues></_>
        <_>
          <internalNodes>
            0 -1 48 -8.7443906068801880e-01</internalNodes>
          <leafValues>
            1.5047543048858643e+00 -2.2452399134635925e-01</leafValues></_>
        <_>
          <internalNodes>
            0 -1 195 1.8349586054682732e-02</internalNodes>
          <leafValues>
            -3.1057313084602356e-01 9.8633706569671631e-01</leafValues></_>
        <_>
          <internalNodes>
            0 -1 476 -1.0122707113623619e-02</internalNodes>
          <leafValues>
            8.8724011182785034e-01 -3.2317927479743958e-01</leafValues></_>
        <_>
          <internalNodes>
            0 -1 185 8.0782379955053329e-03</internalNodes>
          <leafValues>
            1.6757728159427643e-01 -1.0707709789276123e+00</leafValues></_>
        <_>
          <internalNodes>
            0 -1 344 9.6851550042629242e-03</internalNodes>
          <leafValues>
            -3.8981524109840393e-01 6.6246974468231201e-01</leafValues></_>
        <_>
          <internalNodes>
            0 -1 510 -1.8919143080711365e-01</internalNodes>
          <leafValues>
            1.5043207406997681e+00 -1.9162042438983917e-01</leafValues></_>
        <_>
          <internalNodes>
            0 -1 261 -1.3243144750595093e-01</internalNodes>
          <leafValues>
            2.2579414844512939e+00 -1.0327333956956863e-01</leafValues></_>
        <_>
          <internalNodes>
            0 -1 364 1.7687267065048218e-01</internalNodes>
          <leafValues>
            -1.4329427480697632e-01 1.5017828941345215e+00</leafValues></_>
        <_>
          <internalNodes>
            0 -1 105 -1.8054977990686893e-03</internalNodes>
          <leafValues>
            6.2550330162048340e-01 -2.9416248202323914e-01</leafValues></_>
        <_>
          <internalNodes>
            0 -1 508 4.5297085307538509e-03</internalNodes>
          <leafValues>
            1.6999612748622894e-01 -1.0167547464370728e+00</leafValues></_>
        <_>
          <internalNodes>
            0 -1 505 -3.2499509397894144e-03</internalNodes>
          <leafValues>
            -9.9892067909240723e-01 1.5610699355602264e-01</leafValues></_>
        <_>
          <internalNodes>
            0 -1 315 1.8886552751064301e-01</internalNodes>
          <leafValues>
            -1.2797498703002930e-01 1.7364526987075806e+00</leafValues></_>
        <_>
          <internalNodes>
            0 -1 166 2.1726047620177269e-02</internalNodes>
          <leafValues>
            -2.5711917877197266e-01 6.3196450471878052e-01</leafValues></_>
        <_>
          <internalNodes>
            0 -1 69 5.1529989577829838e-03</internalNodes>
          <leafValues>
            1.2626348435878754e-01 -1.0508617162704468e+00</leafValues></_>
        <_>
          <internalNodes>
            0 -1 437 -5.6204270571470261e-02</internalNodes>
          <leafValues>
            8.2499399781227112e-02 -1.6887458562850952e+00</leafValues></_>
        <_>
          <internalNodes>
            0 -1 111 1.9406221807003021e-02</internalNodes>
          <leafValues>
            -1.9849126040935516e-01 8.3005607128143311e-01</leafValues></_>
        <_>
          <internalNodes>
            0 -1 242 -1.1954745277762413e-02</internalNodes>
          <leafValues>
            4.8170304298400879e-01 -2.9979306459426880e-01</leafValues></_>
        <_>
          <internalNodes>
            0 -1 88 2.9665803909301758e-01</internalNodes>
          <leafValues>
            -1.5306547284126282e-01 1.3527145385742188e+00</leafValues></_>
        <_>
          <internalNodes>
            0 -1 134 -1.4554180670529604e-03</internalNodes>
          <leafValues>
            3.9610365033149719e-01 -3.7835037708282471e-01</leafValues></_>
        <_>
          <internalNodes>
            0 -1 408 -1.4312730729579926e-01</internalNodes>
          <leafValues>
            1.3185977935791016e+00 -1.2470917403697968e-01</leafValues></_>
        <_>
          <internalNodes>
            0 -1 454 8.8420946849510074e-04</internalNodes>
          <leafValues>
            1.9917231798171997e-01 -7.1670776605606079e-01</leafValues></_>
        <_>
          <internalNodes>
            0 -1 474 1.8120498862117529e-03</internalNodes>
          <leafValues>
            -2.2168657183647156e-01 6.5942734479904175e-01</leafValues></_>
        <_>
          <internalNodes>
            0 -1 448 1.7015121411532164e-03</internalNodes>
          <leafValues>
            -3.9664170145988464e-01 3.6237823963165283e-01</leafValues></_>
        <_>
          <internalNodes>
            0 -1 445 -1.8134150654077530e-02</internalNodes>
          <leafValues>
            1.0190078020095825e+00 -1.8351183831691742e-01</leafValues></_>
        <_>
          <internalNodes>
            0 -1 413 1.7646158812567592e-03</internalNodes>
          <leafValues>
            1.7878083884716034e-01 -7.9485279321670532e-01</leafValues></_>
        <_>
          <internalNodes>
            0 -1 523 -2.5099655613303185e-03</internalNodes>
          <leafValues>
            4.1922569274902344e-01 -3.3221587538719177e-01</leafValues></_>
        <_>
          <internalNodes>
            0 -1 38 7.8593159560114145e-04</internalNodes>
          <leafValues>
            1.3375210762023926e-01 -9.6984410285949707e-01</leafValues></_>
        <_>
          <internalNodes>
            0 -1 6 -2.9167225584387779e-03</internalNodes>
          <leafValues>
            -9.7675031423568726e-01 1.2020415067672729e-01</leafValues></_>
        <_>
          <internalNodes>
            0 -1 249 1.5444278717041016e-02</internalNodes>
          <leafValues>
            -2.2223281860351563e-01 6.3858836889266968e-01</leafValues></_>
        <_>
          <internalNodes>
            0 -1 349 -6.7140017636120319e-03</internalNodes>
          <leafValues>
            5.2782756090164185e-01 -3.5772553086280823e-01</leafValues></_>
        <_>
          <internalNodes>
            0 -1 359 -2.4315608665347099e-02</internalNodes>
          <leafValues>
            6.7475688457489014e-01 -2.4162967503070831e-01</leafValues></_>
        <_>
          <internalNodes>
            0 -1 205 -2.6480983942747116e-02</internalNodes>
          <leafValues>
            6.2529325485229492e-01 -3.2329985499382019e-01</leafValues></_>
        <_>
          <internalNodes>
            0 -1 50 -8.4813833236694336e-02</internalNodes>
          <leafValues>
            5.8303308486938477e-01 -2.9631218314170837e-01</leafValues></_>
        <_>
          <internalNodes>
            0 -1 371 -7.0517443120479584e-02</internalNodes>
          <leafValues>
            1.5294226408004761e+00 -9.4691663980484009e-02</leafValues></_>
        <_>
          <internalNodes>
            0 -1 307 2.4798792600631714e-01</internalNodes>
          <leafValues>
            -1.8558194860816002e-02 6.1361961364746094e+00</leafValues></_>
        <_>
          <internalNodes>
            0 -1 365 -1.1528888344764709e-01</internalNodes>
          <leafValues>
            -3.0315935611724854e-01 4.3250963091850281e-01</leafValues></_>
        <_>
          <internalNodes>
            0 -1 175 -5.8113615959882736e-02</internalNodes>
          <leafValues>
            5.0029426813125610e-01 -2.5485175848007202e-01</leafValues></_>
        <_>
          <internalNodes>
            0 -1 183 4.1919858194887638e-03</internalNodes>
          <leafValues>
            8.7734401226043701e-02 -1.3946193456649780e+00</leafValues></_>
        <_>
          <internalNodes>
            0 -1 63 -1.3418597169220448e-02</internalNodes>
          <leafValues>
            7.4326002597808838e-01 -1.8905569612979889e-01</leafValues></_></weakClassifiers></_>
    <!-- stage 14 -->
    <_>
      <maxWeakCount>50</maxWeakCount>
      <stageThreshold>-3.5584700107574463e+00</stageThreshold>
      <weakClassifiers>
        <_>
          <internalNodes>
            0 -1 419 -2.0464390516281128e-01</internalNodes>
          <leafValues>
            1.2679738998413086e+00 -7.9015433788299561e-01</leafValues></_>
        <_>
          <internalNodes>
            0 -1 318 1.3144142925739288e-02</internalNodes>
          <leafValues>
            -4.4260448217391968e-01 8.7176883220672607e-01</leafValues></_>
        <_>
          <internalNodes>
            0 -1 311 -7.6938748359680176e-02</internalNodes>
          <leafValues>
            1.3570971488952637e+00 -3.0689516663551331e-01</leafValues></_>
        <_>
          <internalNodes>
            0 -1 322 1.0919278860092163e-01</internalNodes>
          <leafValues>
            -3.3707797527313232e-01 9.1420328617095947e-01</leafValues></_>
        <_>
          <internalNodes>
            0 -1 262 -2.3730574548244476e-01</internalNodes>
          <leafValues>
            3.1914920806884766e+00 -1.0692444443702698e-01</leafValues></_>
        <_>
          <internalNodes>
            0 -1 492 -1.7028662562370300e-01</internalNodes>
          <leafValues>
            2.6460378170013428e+00 -8.7496280670166016e-02</leafValues></_>
        <_>
          <internalNodes>
            0 -1 26 1.6175411641597748e-02</internalNodes>
          <leafValues>
            -4.0628826618194580e-01 7.3412883281707764e-01</leafValues></_>
        <_>
          <internalNodes>
            0 -1 393 -1.7524504661560059e-01</internalNodes>
          <leafValues>
            1.3221087455749512e+00 -1.9460141658782959e-01</leafValues></_>
        <_>
          <internalNodes>
            0 -1 457 7.1512814611196518e-03</internalNodes>
          <leafValues>
            1.8357682228088379e-01 -9.2561709880828857e-01</leafValues></_>
        <_>
          <internalNodes>
            0 -1 457 -8.7562287226319313e-03</internalNodes>
          <leafValues>
            -9.8882913589477539e-01 1.5913367271423340e-01</leafValues></_>
        <_>
          <internalNodes>
            0 -1 12 -6.9132810458540916e-03</internalNodes>
          <leafValues>
            4.8088175058364868e-01 -3.6672919988632202e-01</leafValues></_>
        <_>
          <internalNodes>
            0 -1 352 -1.8469305709004402e-02</internalNodes>
          <leafValues>
            1.0277260541915894e+00 -2.3312732577323914e-01</leafValues></_>
        <_>
          <internalNodes>
            0 -1 282 2.6785940863192081e-03</internalNodes>
          <leafValues>
            7.7056042850017548e-02 -1.4537963867187500e+00</leafValues></_>
        <_>
          <internalNodes>
            0 -1 110 -1.1386732757091522e-01</internalNodes>
          <leafValues>
            -1.3192981481552124e+00 9.3679577112197876e-02</leafValues></_>
        <_>
          <internalNodes>
            0 -1 467 3.4566209651529789e-03</internalNodes>
          <leafValues>
            -3.9590448141098022e-01 3.6149054765701294e-01</leafValues></_>
        <_>
          <internalNodes>
            0 -1 368 -3.0565120279788971e-02</internalNodes>
          <leafValues>
            7.9909259080886841e-01 -2.5910538434982300e-01</leafValues></_>
        <_>
          <internalNodes>
            0 -1 169 -2.2053122520446777e-03</internalNodes>
          <leafValues>
            -1.0105079412460327e+00 1.3025707006454468e-01</leafValues></_>
        <_>
          <internalNodes>
            0 -1 484 4.7869294881820679e-02</internalNodes>
          <leafValues>
            6.7150510847568512e-02 -1.3617405891418457e+00</leafValues></_>
        <_>
          <internalNodes>
            0 -1 232 1.9379872828722000e-02</internalNodes>
          <leafValues>
            -2.5118401646614075e-01 5.2784019708633423e-01</leafValues></_>
        <_>
          <internalNodes>
            0 -1 475 -3.4946347586810589e-03</internalNodes>
          <leafValues>
            8.3035463094711304e-01 -2.0038624107837677e-01</leafValues></_>
        <_>
          <internalNodes>
            0 -1 449 3.2694316469132900e-03</internalNodes>
          <leafValues>
            -4.4392693042755127e-01 3.5620591044425964e-01</leafValues></_>
        <_>
          <internalNodes>
            0 -1 177 2.1721577271819115e-02</internalNodes>
          <leafValues>
            -1.8695832788944244e-01 8.5963410139083862e-01</leafValues></_>
        <_>
          <internalNodes>
            0 -1 233 1.0327236959710717e-03</internalNodes>
          <leafValues>
            1.5161840617656708e-01 -1.1236629486083984e+00</leafValues></_>
        <_>
          <internalNodes>
            0 -1 231 -3.4643765538930893e-03</internalNodes>
          <leafValues>
            -9.3900543451309204e-01 1.6063851118087769e-01</leafValues></_>
        <_>
          <internalNodes>
            0 -1 142 7.3454389348626137e-03</internalNodes>
          <leafValues>
            -3.9920967817306519e-01 3.2914611697196960e-01</leafValues></_>
        <_>
          <internalNodes>
            0 -1 133 7.9351873137056828e-04</internalNodes>
          <leafValues>
            -2.4996322393417358e-01 6.1224299669265747e-01</leafValues></_>
        <_>
          <internalNodes>
            0 -1 466 7.8566879034042358e-02</internalNodes>
          <leafValues>
            -8.0644793808460236e-02 1.7748783826828003e+00</leafValues></_>
        <_>
          <internalNodes>
            0 -1 185 -7.4995700269937515e-03</internalNodes>
          <leafValues>
            -9.9187844991683960e-01 1.3089431822299957e-01</leafValues></_>
        <_>
          <internalNodes>
            0 -1 480 -1.6260631382465363e-03</internalNodes>
          <leafValues>
            -1.1321090459823608e+00 9.9765531718730927e-02</leafValues></_>
        <_>
          <internalNodes>
            0 -1 331 -1.9928194582462311e-02</internalNodes>
          <leafValues>
            -1.1116468906402588e+00 8.8070422410964966e-02</leafValues></_>
        <_>
          <internalNodes>
            0 -1 192 1.7452808097004890e-03</internalNodes>
          <leafValues>
            -2.4045611917972565e-01 5.5217218399047852e-01</leafValues></_>
        <_>
          <internalNodes>
            0 -1 255 9.5607656985521317e-03</internalNodes>
          <leafValues>
            -2.1387214958667755e-01 6.5378934144973755e-01</leafValues></_>
        <_>
          <internalNodes>
            0 -1 125 7.6834643259644508e-03</internalNodes>
          <leafValues>
            1.0960441827774048e-01 -1.0320563316345215e+00</leafValues></_>
        <_>
          <internalNodes>
            0 -1 14 1.1227918788790703e-02</internalNodes>
          <leafValues>
            1.2139479815959930e-01 -7.8640717267990112e-01</leafValues></_>
        <_>
          <internalNodes>
            0 -1 299 -2.2734894882887602e-03</internalNodes>
          <leafValues>
            3.8824516534805298e-01 -2.7995645999908447e-01</leafValues></_>
        <_>
          <internalNodes>
            0 -1 381 4.0131062269210815e-02</internalNodes>
          <leafValues>
            -1.3462993502616882e-01 8.6897075176239014e-01</leafValues></_>
        <_>
          <internalNodes>
            0 -1 462 -2.2457862272858620e-02</internalNodes>
          <leafValues>
            6.0571444034576416e-01 -2.3050059378147125e-01</leafValues></_>
        <_>
          <internalNodes>
            0 -1 326 2.7264684438705444e-02</internalNodes>
          <leafValues>
            -1.6035360097885132e-01 7.6789551973342896e-01</leafValues></_>
        <_>
          <internalNodes>
            0 -1 98 -4.4837519526481628e-03</internalNodes>
          <leafValues>
            4.5498535037040710e-01 -2.7067065238952637e-01</leafValues></_>
        <_>
          <internalNodes>
            0 -1 291 -2.8875601291656494e-01</internalNodes>
          <leafValues>
            1.1937513351440430e+00 -9.7073048353195190e-02</leafValues></_>
        <_>
          <internalNodes>
            0 -1 180 -2.7977669611573219e-02</internalNodes>
          <leafValues>
            8.8133735656738281e+00 -1.9708646461367607e-02</leafValues></_>
        <_>
          <internalNodes>
            0 -1 180 -2.8809756040573120e-02</internalNodes>
          <leafValues>
            -8.7406148910522461e+00 5.5312102631432936e-05</leafValues></_>
        <_>
          <internalNodes>
            0 -1 147 -3.7554666399955750e-02</internalNodes>
          <leafValues>
            6.5097117424011230e+00 -3.9986860938370228e-03</leafValues></_>
        <_>
          <internalNodes>
            0 -1 147 -3.9406307041645050e-02</internalNodes>
          <leafValues>
            -5.2164130210876465e+00 -2.1910052746534348e-03</leafValues></_>
        <_>
          <internalNodes>
            0 -1 221 3.0093351379036903e-03</internalNodes>
          <leafValues>
            8.5173130035400391e-02 -1.3780217170715332e+00</leafValues></_>
        <_>
          <internalNodes>
            0 -1 497 4.7784955240786076e-03</internalNodes>
          <leafValues>
            -2.3351843655109406e-01 4.8095741868019104e-01</leafValues></_>
        <_>
          <internalNodes>
            0 -1 414 4.1023731231689453e-02</internalNodes>
          <leafValues>
            -1.9870123267173767e-01 6.0907107591629028e-01</leafValues></_>
        <_>
          <internalNodes>
            0 -1 259 -2.7881953865289688e-03</internalNodes>
          <leafValues>
            4.0741300582885742e-01 -3.2055547833442688e-01</leafValues></_>
        <_>
          <internalNodes>
            0 -1 254 -9.0691991150379181e-02</internalNodes>
          <leafValues>
            -1.3444464206695557e+00 6.9269277155399323e-02</leafValues></_>
        <_>
          <internalNodes>
            0 -1 53 -6.4081721939146519e-04</internalNodes>
          <leafValues>
            -9.1192722320556641e-01 9.4861142337322235e-02</leafValues></_></weakClassifiers></_>
    <!-- stage 15 -->
    <_>
      <maxWeakCount>57</maxWeakCount>
      <stageThreshold>-3.3980636596679688e+00</stageThreshold>
      <weakClassifiers>
        <_>
          <internalNodes>
            0 -1 257 -1.6840091347694397e-01</internalNodes>
          <leafValues>
            2.0338982343673706e-01 -9.2857140302658081e-01</leafValues></_>
        <_>
          <internalNodes>
            0 -1 260 7.6580114662647247e-02</internalNodes>
          <leafValues>
            -3.5105806589126587e-01 1.2635223865509033e+00</leafValues></_>
        <_>
          <internalNodes>
            0 -1 499 2.1373725030571222e-03</internalNodes>
          <leafValues>
            -2.8334584832191467e-01 7.9314345121383667e-01</leafValues></_>
        <_>
          <internalNodes>
            0 -1 46 4.2060801386833191e-01</internalNodes>
          <leafValues>
            -1.7979244887828827e-01 1.2398215532302856e+00</leafValues></_>
        <_>
          <internalNodes>
            0 -1 59 -4.5894376933574677e-02</internalNodes>
          <leafValues>
            7.0029252767562866e-01 -3.2133576273918152e-01</leafValues></_>
        <_>
          <internalNodes>
            0 -1 144 -5.6957364082336426e-02</internalNodes>
          <leafValues>
            7.2465562820434570e-01 -2.9242616891860962e-01</leafValues></_>
        <_>
          <internalNodes>
            0 -1 252 -1.7080217599868774e-01</internalNodes>
          <leafValues>
            8.0003178119659424e-01 -3.2275444269180298e-01</leafValues></_>
        <_>
          <internalNodes>
            0 -1 397 4.4981718063354492e-02</internalNodes>
          <leafValues>
            -3.3823075890541077e-01 8.2237005233764648e-01</leafValues></_>
        <_>
          <internalNodes>
            0 -1 469 -1.3289542868733406e-02</internalNodes>
          <leafValues>
            9.8485773801803589e-01 -2.5816082954406738e-01</leafValues></_>
        <_>
          <internalNodes>
            0 -1 194 -1.1516127735376358e-02</internalNodes>
          <leafValues>
            7.0714890956878662e-01 -3.1537368893623352e-01</leafValues></_>
        <_>
          <internalNodes>
            0 -1 483 -1.3021939666941762e-03</internalNodes>
          <leafValues>
            -1.1025627851486206e+00 1.5165555477142334e-01</leafValues></_>
        <_>
          <internalNodes>
            0 -1 382 6.1887353658676147e-02</internalNodes>
          <leafValues>
            -2.3033657670021057e-01 9.9096995592117310e-01</leafValues></_>
        <_>
          <internalNodes>
            0 -1 266 1.2579451501369476e-01</internalNodes>
          <leafValues>
            -1.0942439734935760e-01 1.4616059064865112e+00</leafValues></_>
        <_>
          <internalNodes>
            0 -1 426 1.1239088140428066e-02</internalNodes>
          <leafValues>
            -3.9551675319671631e-01 4.6627497673034668e-01</leafValues></_>
        <_>
          <internalNodes>
            0 -1 330 1.1422395706176758e-02</internalNodes>
          <leafValues>
            1.1295965313911438e-01 -1.1418163776397705e+00</leafValues></_>
        <_>
          <internalNodes>
            0 -1 334 -3.3770143054425716e-03</internalNodes>
          <leafValues>
            -9.7977602481842041e-01 1.2486908584833145e-01</leafValues></_>
        <_>
          <internalNodes>
            0 -1 19 8.9893979020416737e-04</internalNodes>
          <leafValues>
            1.2161056697368622e-01 -1.0111222267150879e+00</leafValues></_>
        <_>
          <internalNodes>
            0 -1 100 1.6865108162164688e-02</internalNodes>
          <leafValues>
            -2.5707435607910156e-01 5.6772994995117188e-01</leafValues></_>
        <_>
          <internalNodes>
            0 -1 488 -4.0917988866567612e-02</internalNodes>
          <leafValues>
            -1.1443259716033936e+00 1.1637267470359802e-01</leafValues></_>
        <_>
          <internalNodes>
            0 -1 149 7.4038426391780376e-03</internalNodes>
          <leafValues>
            -2.8271642327308655e-01 4.8648786544799805e-01</leafValues></_>
        <_>
          <internalNodes>
            0 -1 189 2.3150045424699783e-02</internalNodes>
          <leafValues>
            -2.3760654032230377e-01 6.7393583059310913e-01</leafValues></_>
        <_>
          <internalNodes>
            0 -1 378 3.9735920727252960e-03</internalNodes>
          <leafValues>
            1.2527292966842651e-01 -1.0124033689498901e+00</leafValues></_>
        <_>
          <internalNodes>
            0 -1 405 -1.4665803313255310e-01</internalNodes>
          <leafValues>
            6.4428567886352539e-01 -2.1888209879398346e-01</leafValues></_>
        <_>
          <internalNodes>
            0 -1 209 2.1837403997778893e-02</internalNodes>
          <leafValues>
            -2.3622091114521027e-01 5.7302635908126831e-01</leafValues></_>
        <_>
          <internalNodes>
            0 -1 533 -1.2689004838466644e-01</internalNodes>
          <leafValues>
            -1.2960758209228516e+00 8.5610158741474152e-02</leafValues></_>
        <_>
          <internalNodes>
            0 -1 390 -3.7711545825004578e-02</internalNodes>
          <leafValues>
            6.9525283575057983e-01 -2.1249991655349731e-01</leafValues></_>
        <_>
          <internalNodes>
            0 -1 211 -2.4521270394325256e-01</internalNodes>
          <leafValues>
            1.3695091009140015e+00 -1.0842560976743698e-01</leafValues></_>
        <_>
          <internalNodes>
            0 -1 401 -5.5395048111677170e-03</internalNodes>
          <leafValues>
            -1.0432161092758179e+00 1.2135172635316849e-01</leafValues></_>
        <_>
          <internalNodes>
            0 -1 212 -3.3097901940345764e-01</internalNodes>
          <leafValues>
            5.7225036621093750e-01 -2.3121844232082367e-01</leafValues></_>
        <_>
          <internalNodes>
            0 -1 106 -6.5782189369201660e-02</internalNodes>
          <leafValues>
            8.3473838865756989e-02 -1.5061429738998413e+00</leafValues></_>
        <_>
          <internalNodes>
            0 -1 141 7.8818835318088531e-03</internalNodes>
          <leafValues>
            -1.8141028285026550e-01 8.1014090776443481e-01</leafValues></_>
        <_>
          <internalNodes>
            0 -1 178 -8.4175670053809881e-04</internalNodes>
          <leafValues>
            3.2741680741310120e-01 -4.2303970456123352e-01</leafValues></_>
        <_>
          <internalNodes>
            0 -1 81 9.0083982795476913e-03</internalNodes>
          <leafValues>
            9.7980558872222900e-02 -1.1329506635665894e+00</leafValues></_>
        <_>
          <internalNodes>
            0 -1 182 -7.3760910890996456e-03</internalNodes>
          <leafValues>
            -1.2542588710784912e+00 7.0121973752975464e-02</leafValues></_>
        <_>
          <internalNodes>
            0 -1 4 1.9022903870791197e-03</internalNodes>
          <leafValues>
            1.1898528039455414e-01 -8.0273348093032837e-01</leafValues></_>
        <_>
          <internalNodes>
            0 -1 210 -5.5600786581635475e-03</internalNodes>
          <leafValues>
            5.1801067590713501e-01 -2.1660043299198151e-01</leafValues></_>
        <_>
          <internalNodes>
            0 -1 479 -1.3195264618843794e-03</internalNodes>
          <leafValues>
            4.9493998289108276e-01 -2.3817500472068787e-01</leafValues></_>
        <_>
          <internalNodes>
            0 -1 453 -2.6713456027209759e-03</internalNodes>
          <leafValues>
            -1.0688449144363403e+00 7.9978235065937042e-02</leafValues></_>
        <_>
          <internalNodes>
            0 -1 140 2.4556526914238930e-03</internalNodes>
          <leafValues>
            -2.1707779169082642e-01 4.6445327997207642e-01</leafValues></_>
        <_>
          <internalNodes>
            0 -1 377 1.0912390425801277e-02</internalNodes>
          <leafValues>
            1.1526531726121902e-01 -9.4180232286453247e-01</leafValues></_>
        <_>
          <internalNodes>
            0 -1 465 -5.3272590041160583e-02</internalNodes>
          <leafValues>
            8.5082954168319702e-01 -1.3872517645359039e-01</leafValues></_>
        <_>
          <internalNodes>
            0 -1 156 -4.7619295120239258e-01</internalNodes>
          <leafValues>
            -1.1526883840560913e+00 6.7983075976371765e-02</leafValues></_>
        <_>
          <internalNodes>
            0 -1 8 2.6806632522493601e-03</internalNodes>
          <leafValues>
            1.2750805914402008e-01 -6.9063663482666016e-01</leafValues></_>
        <_>
          <internalNodes>
            0 -1 436 -9.3415561423171312e-05</internalNodes>
          <leafValues>
            3.2569146156311035e-01 -2.9835471510887146e-01</leafValues></_>
        <_>
          <internalNodes>
            0 -1 65 8.9696701616048813e-04</internalNodes>
          <leafValues>
            1.1140803247690201e-01 -8.4162956476211548e-01</leafValues></_>
        <_>
          <internalNodes>
            0 -1 399 -2.0459960214793682e-03</internalNodes>
          <leafValues>
            -9.1737884283065796e-01 8.3704352378845215e-02</leafValues></_>
        <_>
          <internalNodes>
            0 -1 493 5.1102899014949799e-02</internalNodes>
          <leafValues>
            -9.0245611965656281e-02 1.1180264949798584e+00</leafValues></_>
        <_>
          <internalNodes>
            0 -1 423 1.5927762724459171e-03</internalNodes>
          <leafValues>
            -3.2848075032234192e-01 2.8909751772880554e-01</leafValues></_>
        <_>
          <internalNodes>
            0 -1 120 -3.8132244348526001e-01</internalNodes>
          <leafValues>
            1.0825400352478027e+00 -9.7862482070922852e-02</leafValues></_>
        <_>
          <internalNodes>
            0 -1 450 3.5461918450891972e-03</internalNodes>
          <leafValues>
            -2.4634750187397003e-01 3.9622911810874939e-01</leafValues></_>
        <_>
          <internalNodes>
            0 -1 247 -2.5813174434006214e-03</internalNodes>
          <leafValues>
            5.0435686111450195e-01 -1.8354430794715881e-01</leafValues></_>
        <_>
          <internalNodes>
            0 -1 404 2.5068079121410847e-03</internalNodes>
          <leafValues>
            1.5321379899978638e-01 -7.5051110982894897e-01</leafValues></_>
        <_>
          <internalNodes>
            0 -1 388 -3.2179348636418581e-03</internalNodes>
          <leafValues>
            5.5890727043151855e-01 -1.7611157894134521e-01</leafValues></_>
        <_>
          <internalNodes>
            0 -1 384 -4.2829193174839020e-02</internalNodes>
          <leafValues>
            7.0219956338405609e-02 -1.2098659276962280e+00</leafValues></_>
        <_>
          <internalNodes>
            0 -1 418 -2.1688990294933319e-02</internalNodes>
          <leafValues>
            -1.2712147235870361e+00 4.9331624060869217e-02</leafValues></_>
        <_>
          <internalNodes>
            0 -1 183 1.1519165709614754e-03</internalNodes>
          <leafValues>
            1.0603193938732147e-01 -7.3126852512359619e-01</leafValues></_>
        <_>
          <internalNodes>
            0 -1 472 -1.8619156908243895e-03</internalNodes>
          <leafValues>
            3.9695361256599426e-01 -2.2041505575180054e-01</leafValues></_></weakClassifiers></_>
    <!-- stage 16 -->
    <_>
      <maxWeakCount>55</maxWeakCount>
      <stageThreshold>-3.2530233860015869e+00</stageThreshold>
      <weakClassifiers>
        <_>
          <internalNodes>
            0 -1 248 5.7320832274854183e-03</internalNodes>
          <leafValues>
            -9.3094360828399658e-01 1.0107197612524033e-01</leafValues></_>
        <_>
          <internalNodes>
            0 -1 204 1.2346619367599487e-01</internalNodes>
          <leafValues>
            -1.9273521006107330e-01 1.9415276050567627e+00</leafValues></_>
        <_>
          <internalNodes>
            0 -1 202 -4.1322797536849976e-01</internalNodes>
          <leafValues>
            1.1567466259002686e+00 -2.6247850060462952e-01</leafValues></_>
        <_>
          <internalNodes>
            0 -1 460 2.7405995130538940e-01</internalNodes>
          <leafValues>
            -1.0773189365863800e-01 3.5487089157104492e+00</leafValues></_>
        <_>
          <internalNodes>
            0 -1 187 -8.4254980087280273e-02</internalNodes>
          <leafValues>
            8.5721832513809204e-01 -2.3263387382030487e-01</leafValues></_>
        <_>
          <internalNodes>
            0 -1 420 -2.3028567433357239e-01</internalNodes>
          <leafValues>
            2.1605513095855713e+00 -1.5761055052280426e-01</leafValues></_>
        <_>
          <internalNodes>
            0 -1 22 -4.5831394195556641e-01</internalNodes>
          <leafValues>
            1.0489509105682373e+00 -2.1643303334712982e-01</leafValues></_>
        <_>
          <internalNodes>
            0 -1 223 5.0035566091537476e-02</internalNodes>
          <leafValues>
            -2.1165309846401215e-01 9.5136487483978271e-01</leafValues></_>
        <_>
          <internalNodes>
            0 -1 258 2.0878003537654877e-01</internalNodes>
          <leafValues>
            -1.8121898174285889e-01 1.0634539127349854e+00</leafValues></_>
        <_>
          <internalNodes>
            0 -1 410 -2.9117345809936523e-01</internalNodes>
          <leafValues>
            2.2979125976562500e+00 -1.0336112231016159e-01</leafValues></_>
        <_>
          <internalNodes>
            0 -1 415 -2.2283485159277916e-03</internalNodes>
          <leafValues>
            -8.9887231588363647e-01 1.8077790737152100e-01</leafValues></_>
        <_>
          <internalNodes>
            0 -1 358 -1.5998085960745811e-02</internalNodes>
          <leafValues>
            7.4190074205398560e-01 -2.1449804306030273e-01</leafValues></_>
        <_>
          <internalNodes>
            0 -1 452 2.0678280852735043e-03</internalNodes>
          <leafValues>
            -2.9353111982345581e-01 6.5447521209716797e-01</leafValues></_>
        <_>
          <internalNodes>
            0 -1 40 -1.8566087819635868e-03</internalNodes>
          <leafValues>
            -1.1539570093154907e+00 1.0641244798898697e-01</leafValues></_>
        <_>
          <internalNodes>
            0 -1 280 4.4121202081441879e-02</internalNodes>
          <leafValues>
            -2.1548540890216827e-01 6.8616545200347900e-01</leafValues></_>
        <_>
          <internalNodes>
            0 -1 84 -4.5608639717102051e-02</internalNodes>
          <leafValues>
            6.6666889190673828e-01 -3.1917792558670044e-01</leafValues></_>
        <_>
          <internalNodes>
            0 -1 130 7.5732129625976086e-03</internalNodes>
          <leafValues>
            -2.2906032204627991e-01 8.6463755369186401e-01</leafValues></_>
        <_>
          <internalNodes>
            0 -1 32 9.5459874719381332e-03</internalNodes>
          <leafValues>
            1.6642953455448151e-01 -9.4563019275665283e-01</leafValues></_>
        <_>
          <internalNodes>
            0 -1 298 -3.1349901109933853e-03</internalNodes>
          <leafValues>
            5.8503895998001099e-01 -2.5131809711456299e-01</leafValues></_>
        <_>
          <internalNodes>
            0 -1 364 -2.2369980812072754e-01</internalNodes>
          <leafValues>
            1.7368189096450806e+00 -8.8005982339382172e-02</leafValues></_>
        <_>
          <internalNodes>
            0 -1 292 8.6972713470458984e-03</internalNodes>
          <leafValues>
            -2.0316262543201447e-01 6.4973622560501099e-01</leafValues></_>
        <_>
          <internalNodes>
            0 -1 400 -8.9229661971330643e-03</internalNodes>
          <leafValues>
            4.6328768134117126e-01 -3.8429996371269226e-01</leafValues></_>
        <_>
          <internalNodes>
            0 -1 378 -6.5823374316096306e-03</internalNodes>
          <leafValues>
            -1.1249719858169556e+00 9.7188450396060944e-02</leafValues></_>
        <_>
          <internalNodes>
            0 -1 413 -4.4024372473359108e-03</internalNodes>
          <leafValues>
            -9.9486684799194336e-01 1.1316536366939545e-01</leafValues></_>
        <_>
          <internalNodes>
            0 -1 226 1.2688167393207550e-02</internalNodes>
          <leafValues>
            9.2197455465793610e-02 -1.0732955932617188e+00</leafValues></_>
        <_>
          <internalNodes>
            0 -1 323 1.5174275264143944e-02</internalNodes>
          <leafValues>
            -2.6587235927581787e-01 5.3143900632858276e-01</leafValues></_>
        <_>
          <internalNodes>
            0 -1 279 -1.6844559460878372e-02</internalNodes>
          <leafValues>
            3.8289299607276917e-01 -3.5073515772819519e-01</leafValues></_>
        <_>
          <internalNodes>
            0 -1 139 5.2571287378668785e-03</internalNodes>
          <leafValues>
            -2.6723247766494751e-01 4.8946154117584229e-01</leafValues></_>
        <_>
          <internalNodes>
            0 -1 143 4.3325789272785187e-02</internalNodes>
          <leafValues>
            -1.5340600907802582e-01 8.8422036170959473e-01</leafValues></_>
        <_>
          <internalNodes>
            0 -1 224 7.8071402385830879e-03</internalNodes>
          <leafValues>
            1.4411924779415131e-01 -8.4692966938018799e-01</leafValues></_>
        <_>
          <internalNodes>
            0 -1 347 1.5288125723600388e-02</internalNodes>
          <leafValues>
            -2.1526175737380981e-01 5.9130871295928955e-01</leafValues></_>
        <_>
          <internalNodes>
            0 -1 375 -2.3196075111627579e-02</internalNodes>
          <leafValues>
            3.9610201120376587e-01 -2.5750267505645752e-01</leafValues></_>
        <_>
          <internalNodes>
            0 -1 470 -1.2847086414694786e-02</internalNodes>
          <leafValues>
            9.1067153215408325e-01 -1.4771281182765961e-01</leafValues></_>
        <_>
          <internalNodes>
            0 -1 131 4.5845499262213707e-03</internalNodes>
          <leafValues>
            -2.9086193442344666e-01 3.8467290997505188e-01</leafValues></_>
        <_>
          <internalNodes>
            0 -1 435 -2.0683743059635162e-01</internalNodes>
          <leafValues>
            8.4875553846359253e-01 -1.6191004216670990e-01</leafValues></_>
        <_>
          <internalNodes>
            0 -1 489 -8.1785425543785095e-02</internalNodes>
          <leafValues>
            -1.3398048877716064e+00 8.9052125811576843e-02</leafValues></_>
        <_>
          <internalNodes>
            0 -1 75 2.0175771787762642e-02</internalNodes>
          <leafValues>
            -2.9150965809822083e-01 3.8959941267967224e-01</leafValues></_>
        <_>
          <internalNodes>
            0 -1 174 2.0841361954808235e-02</internalNodes>
          <leafValues>
            -2.6995101571083069e-01 5.3469932079315186e-01</leafValues></_>
        <_>
          <internalNodes>
            0 -1 447 1.6004674835130572e-03</internalNodes>
          <leafValues>
            -3.6008989810943604e-01 3.3518722653388977e-01</leafValues></_>
        <_>
          <internalNodes>
            0 -1 154 8.4839742630720139e-03</internalNodes>
          <leafValues>
            1.1772419512271881e-01 -8.8830953836441040e-01</leafValues></_>
        <_>
          <internalNodes>
            0 -1 486 1.6110229771584272e-03</internalNodes>
          <leafValues>
            1.1289369314908981e-01 -7.9607629776000977e-01</leafValues></_>
        <_>
          <internalNodes>
            0 -1 498 4.2701167985796928e-03</internalNodes>
          <leafValues>
            -1.6808514297008514e-01 7.2016245126724243e-01</leafValues></_>
        <_>
          <internalNodes>
            0 -1 481 -1.3136276975274086e-03</internalNodes>
          <leafValues>
            -7.1319234371185303e-01 1.4103311300277710e-01</leafValues></_>
        <_>
          <internalNodes>
            0 -1 77 1.4491575711872429e-04</internalNodes>
          <leafValues>
            -2.9603424668312073e-01 3.3528319001197815e-01</leafValues></_>
        <_>
          <internalNodes>
            0 -1 207 1.4572092890739441e-01</internalNodes>
          <leafValues>
            -8.7736122310161591e-02 1.2378010749816895e+00</leafValues></_>
        <_>
          <internalNodes>
            0 -1 193 2.5816641282290220e-03</internalNodes>
          <leafValues>
            -1.6754283010959625e-01 5.6772756576538086e-01</leafValues></_>
        <_>
          <internalNodes>
            0 -1 9 -8.4040137007832527e-03</internalNodes>
          <leafValues>
            -7.3819416761398315e-01 1.2973257899284363e-01</leafValues></_>
        <_>
          <internalNodes>
            0 -1 340 7.2900007944554090e-04</internalNodes>
          <leafValues>
            -3.2297855615615845e-01 3.3453008532524109e-01</leafValues></_>
        <_>
          <internalNodes>
            0 -1 113 -2.0364519953727722e-01</internalNodes>
          <leafValues>
            7.4349708557128906e+00 -1.6690364107489586e-02</leafValues></_>
        <_>
          <internalNodes>
            0 -1 245 -1.7449490725994110e-02</internalNodes>
          <leafValues>
            -1.2658827304840088e+00 7.1174055337905884e-02</leafValues></_>
        <_>
          <internalNodes>
            0 -1 398 1.0471449233591557e-02</internalNodes>
          <leafValues>
            7.4970021843910217e-02 -1.0734809637069702e+00</leafValues></_>
        <_>
          <internalNodes>
            0 -1 525 -1.0237063979730010e-03</internalNodes>
          <leafValues>
            -8.2446259260177612e-01 9.1697499155998230e-02</leafValues></_>
        <_>
          <internalNodes>
            0 -1 198 6.5096589969471097e-04</internalNodes>
          <leafValues>
            -3.2799229025840759e-01 2.7317839860916138e-01</leafValues></_>
        <_>
          <internalNodes>
            0 -1 348 4.4808328151702881e-02</internalNodes>
          <leafValues>
            -1.7524398863315582e-01 7.5859010219573975e-01</leafValues></_>
        <_>
          <internalNodes>
            0 -1 430 -6.2253512442111969e-03</internalNodes>
          <leafValues>
            -7.7340340614318848e-01 1.1030882596969604e-01</leafValues></_></weakClassifiers></_>
    <!-- stage 17 -->
    <_>
      <maxWeakCount>100</maxWeakCount>
      <stageThreshold>-5.1980743408203125e+00</stageThreshold>
      <weakClassifiers>
        <_>
          <internalNodes>
            0 -1 261 1.2482224404811859e-01</internalNodes>
          <leafValues>
            -7.7090299129486084e-01 9.1139239072799683e-01</leafValues></_>
        <_>
          <internalNodes>
            0 -1 359 6.1474822461605072e-02</internalNodes>
          <leafValues>
